{"learner":{"attributes":{"best_iteration":"99","best_score":"0.5691697459019376"},"feature_names":[],"feature_types":[],"gradient_booster":{"model":{"cats":{"enc":[],"feature_segments":[],"sorted_idx":[]},"gbtree_model_param":{"num_parallel_tree":"1","num_trees":"300"},"iteration_indptr":[0,3,6,9,12,15,18,21,24,27,30,33,36,39,42,45,48,51,54,57,60,63,66,69,72,75,78,81,84,87,90,93,96,99,102,105,108,111,114,117,120,123,126,129,132,135,138,141,144,147,150,153,156,159,162,165,168,171,174,177,180,183,186,189,192,195,198,201,204,207,210,213,216,219,222,225,228,231,234,237,240,243,246,249,252,255,258,261,264,267,270,273,276,279,282,285,288,291,294,297,300],"tree_info":[0,1,2,0,1,2,0,1,2,0,1,2,0,1,2,0,1,2,0,1,2,0,1,2,0,1,2,0,1,2,0,1,2,0,1,2,0,1,2,0,1,2,0,1,2,0,1,2,0,1,2,0,1,2,0,1,2,0,1,2,0,1,2,0,1,2,0,1,2,0,1,2,0,1,2,0,1,2,0,1,2,0,1,2,0,1,2,0,1,2,0,1,2,0,1,2,0,1,2,0,1,2,0,1,2,0,1,2,0,1,2,0,1,2,0,1,2,0,1,2,0,1,2,0,1,2,0,1,2,0,1,2,0,1,2,0,1,2,0,1,2,0,1,2,0,1,2,0,1,2,0,1,2,0,1,2,0,1,2,0,1,2,0,1,2,0,1,2,0,1,2,0,1,2,0,1,2,0,1,2,0,1,2,0,1,2,0,1,2,0,1,2,0,1,2,0,1,2,0,1,2,0,1,2,0,1,2,0,1,2,0,1,2,0,1,2,0,1,2,0,1,2,0,1,2,0,1,2,0,1,2,0,1,2,0,1,2,0,1,2,0,1,2,0,1,2,0,1,2,0,1,2,0,1,2,0,1,2,0,1,2,0,1,2,0,1,2,0,1,2,0,1,2,0,1,2,0,1,2,0,1,2,0,1,2,0,1,2,0,1,2,0,1,2,0,1,2,0,1,2],"trees":[{"base_weights":[3.9013312E-3,7.0615135E-2,-2.4214903E-1,5.64193E-3,4.3936875E-1,-2.7037457E-1,1.2476506E0,6.792734E-2,-1.7600489E-1,2.2125445E-1,7.449129E-1,-1.24663845E-1,-4.3555748E-1,1.3005315E0,4.4039648E-2,5.6421678E-3,3.4043843E-1,-4.6862605E-1,-7.273438E-2,4.261E-1,-5.504084E-1,1.0411067E0,3.0540976E-1,-2.57625E-1,2.9898125E-1,4.0772793E-1,-5.032546E-1,4.4589322E-2,1.3643412E-1,-4.7445893E-3,1.3584904E-1,-9.69492E-2,4.7410062E-1,-6.7749345E-1,-2.2724201E-1,8.387953E-1,-1.9354157E-1,7.816276E-1,-4.6901952E-2,8.674602E-2,-6.080701E-1,1.1040742E0,-3.901812E-1,-6.665663E-2,4.4377646E-1,-3.8121456E-1,1.5701205E-1,8.706769E-1,-1.9927023E-1,-4.4382462E-1,6.268436E-1,-5.3308994E-1,1.2307656E-1,2.12141E-3,-5.3216845E-2,-4.8978653E-2,3.0617177E-2,1.0137037E-1,3.9253857E-2,1.780974E-2,-7.401205E-2,7.587389E-2,-3.8023952E-2,1.08129315E-1,7.566566E-3,-2.602816E-2,2.6281381E-2,-2.241155E-3,1.07012056E-1,8.1334814E-2,-3.625237E-2,-7.3161386E-2,2.1478054E-3,1.7609565E-2,1.1818409E-1,1.557335E-3,-5.428018E-2,5.9218507E-2,-5.4087024E-2,6.516292E-2,-4.3871548E-2,1.0045427E-1,-1.2108597E-2,-2.5529945E-2,1.16936766E-1,-5.096164E-2,6.696605E-2,-5.8280326E-2,1.557335E-3,-5.8199137E-2,9.0333E-2,7.116678E-2,-5.59623E-2],"categories":[],"categories_nodes":[],"categories_segments":[],"categories_sizes":[],"default_left":[0,0,0,0,0,0,0,0,0,0,0,0,0,0,0,0,0,0,0,0,0,0,0,0,0,0,0,0,0,0,0,0,0,0,0,0,0,0,0,0,0,0,0,0,0,0,0,0,0,0,0,0,0,0,0,0,0,0,0,0,0,0,0,0,0,0,0,0,0,0,0,0,0,0,0,0,0,0,0,0,0,0,0,0,0,0,0,0,0,0,0,0,0],"id":0,"left_children":[1,3,5,7,9,11,13,15,17,19,21,23,25,27,-1,29,31,33,35,37,39,41,43,45,47,49,51,-1,-1,53,-1,55,57,59,61,63,65,67,69,-1,71,73,75,-1,77,79,81,83,85,87,89,91,-1,-1,-1,-1,-1,-1,-1,-1,-1,-1,-1,-1,-1,-1,-1,-1,-1,-1,-1,-1,-1,-1,-1,-1,-1,-1,-1,-1,-1,-1,-1,-1,-1,-1,-1,-1,-1,-1,-1,-1,-1],"loss_changes":[5.6221855E1,6.4553406E1,3.105841E1,2.594129E1,2.6733643E1,1.7222744E1,1.4734268E-2,2.8977407E1,1.7658167E1,3.768563E1,2.1511856E1,2.163885E1,1.9388306E1,6.809425E-2,0E0,1.9548477E1,1.8614407E1,7.5365906E0,4.79461E1,3.1616062E1,4.626502E0,9.421944E0,9.565929E0,1.5017473E1,2.6351803E1,5.040572E0,1.6771812E1,0E0,0E0,1.892057E1,0E0,1.2054328E1,1.0316257E1,4.4866447E0,1.1189966E1,9.349987E0,1.1762741E1,2.4904778E1,2.2429855E1,0E0,3.8085365E0,6.7068634E0,3.1454867E-1,0E0,9.225339E0,1.3657623E1,1.608586E1,1.47546425E1,1.3802975E1,3.7995446E-1,7.449045E0,1.0535393E1,0E0,0E0,0E0,0E0,0E0,0E0,0E0,0E0,0E0,0E0,0E0,0E0,0E0,0E0,0E0,0E0,0E0,0E0,0E0,0E0,0E0,0E0,0E0,0E0,0E0,0E0,0E0,0E0,0E0,0E0,0E0,0E0,0E0,0E0,0E0,0E0,0E0,0E0,0E0,0E0,0E0],"parents":[2147483647,0,0,1,1,2,2,3,3,4,4,5,5,6,6,7,7,8,8,9,9,10,10,11,11,12,12,13,13,15,15,16,16,17,17,18,18,19,19,20,20,21,21,22,22,23,23,24,24,25,25,26,26,29,29,31,31,32,32,33,33,34,34,35,35,36,36,37,37,38,38,40,40,41,41,42,42,44,44,45,45,46,46,47,47,48,48,49,49,50,50,51,51],"right_children":[2,4,6,8,10,12,14,16,18,20,22,24,26,28,-1,30,32,34,36,38,40,42,44,46,48,50,52,-1,-1,54,-1,56,58,60,62,64,66,68,70,-1,72,74,76,-1,78,80,82,84,86,88,90,92,-1,-1,-1,-1,-1,-1,-1,-1,-1,-1,-1,-1,-1,-1,-1,-1,-1,-1,-1,-1,-1,-1,-1,-1,-1,-1,-1,-1,-1,-1,-1,-1,-1,-1,-1,-1,-1,-1,-1,-1,-1],"split_conditions":[9.273122E-1,4.8841438E-1,1.9731485E0,7.658182E-2,4.0013108E-1,5.0067216E-1,2.4482894E0,5.3707224E-1,-5.7212937E-1,7.411869E-1,6.96592E-1,7.2163975E-1,-1.3026911E0,1.9309828E0,4.4039648E-2,1.8216324E0,-1.341858E0,6.1900817E-2,-1.3718603E0,3.0344325E-1,-3.8424566E-1,1.3754659E0,5.070219E-1,8.3983564E-1,6.9509715E-1,-1.1168637E-1,1.8091772E0,4.4589322E-2,1.3643412E-1,1.5466074E0,1.3584904E-1,1.3204598E0,-1.2892728E0,-1.8111597E0,1.0434063E-1,2.4942383E-1,1.8091772E0,-4.8564908E-1,-1.3192548E0,8.674602E-2,1.1313462E0,-1.5206485E0,7.0298684E-1,-6.665663E-2,2.0387533E0,-1.7362698E0,-1.0920187E0,-8.482806E-1,1.7348573E0,1.6090828E-1,-1.4686489E0,-1.6610245E0,1.2307656E-1,2.12141E-3,-5.3216845E-2,-4.8978653E-2,3.0617177E-2,1.0137037E-1,3.9253857E-2,1.780974E-2,-7.401205E-2,7.587389E-2,-3.8023952E-2,1.08129315E-1,7.566566E-3,-2.602816E-2,2.6281381E-2,-2.241155E-3,1.07012056E-1,8.1334814E-2,-3.625237E-2,-7.3161386E-2,2.1478054E-3,1.7609565E-2,1.1818409E-1,1.557335E-3,-5.428018E-2,5.9218507E-2,-5.4087024E-2,6.516292E-2,-4.3871548E-2,1.0045427E-1,-1.2108597E-2,-2.5529945E-2,1.16936766E-1,-5.096164E-2,6.696605E-2,-5.8280326E-2,1.557335E-3,-5.8199137E-2,9.0333E-2,7.116678E-2,-5.59623E-2],"split_indices":[26,18,23,26,27,7,1,10,24,25,19,19,20,0,0,0,17,18,27,26,20,16,23,23,25,18,25,0,0,23,0,27,18,25,18,17,25,0,19,0,14,10,5,0,19,25,22,10,24,0,0,19,0,0,0,0,0,0,0,0,0,0,0,0,0,0,0,0,0,0,0,0,0,0,0,0,0,0,0,0,0,0,0,0,0,0,0,0,0,0,0,0,0],"split_type":[0,0,0,0,0,0,0,0,0,0,0,0,0,0,0,0,0,0,0,0,0,0,0,0,0,0,0,0,0,0,0,0,0,0,0,0,0,0,0,0,0,0,0,0,0,0,0,0,0,0,0,0,0,0,0,0,0,0,0,0,0,0,0,0,0,0,0,0,0,0,0,0,0,0,0,0,0,0,0,0,0,0,0,0,0,0,0,0,0,0,0,0,0],"sum_hessian":[3.422997E3,2.6934197E3,7.2957764E2,2.2908027E3,4.0261682E2,7.168154E2,1.2762169E1,1.7063376E3,5.844651E2,2.359248E2,1.6669202E2,3.8178815E2,3.3502728E2,1.1404066E1,1.3581033E0,1.389723E3,3.166146E2,1.5153806E2,4.3292703E2,1.8678792E2,4.913688E1,9.876357E1,6.792844E1,2.9088553E2,9.090264E1,2.452335E1,3.1050394E2,1.3472646E0,1.0056801E1,1.3801234E3,9.599674E0,7.417237E1,2.4244223E2,8.027239E1,7.126566E1,4.9966938E1,3.8296008E2,1.06263466E2,8.052446E1,1.371382E0,4.7765495E1,9.482069E1,3.9428842E0,7.989275E0,5.9939163E1,2.2415343E2,6.673209E1,4.1983337E1,4.8919304E1,4.808904E0,1.9714445E1,3.0593265E2,4.5712733E0,1.3162977E3,6.3825623E1,3.7456448E1,3.671592E1,3.0333242E1,2.12109E2,5.349222E0,7.492317E1,9.041197E0,6.222447E1,3.7601486E1,1.2365453E1,3.344743E2,4.8485783E1,2.8303371E1,7.796009E1,2.1190697E1,5.9333763E1,3.9794098E1,7.9713993E0,7.584184E0,8.72365E1,1.3231473E0,2.6197371E0,5.243465E1,7.504512E0,1.1276159E1,2.1287726E2,1.5841474E1,5.089062E1,8.83254E0,3.31508E1,3.6350075E1,1.256923E1,3.4857569E0,1.3231473E0,3.4640796E0,1.6250366E1,5.8461857E0,3.000865E2],"tree_param":{"num_deleted":"0","num_feature":"28","num_nodes":"93","size_leaf_vector":"1"}},{"base_weights":[7.4311444E-3,-9.9123225E-2,2.7612647E-1,2.897405E-2,-1.9193801E-1,4.744778E-1,7.4531935E-2,2.0931673E-1,-7.6760255E-2,-5.1420027E-1,-1.7031129E-1,8.0782497E-1,3.4231415E-1,4.6005365E-1,-5.4912575E-2,-1.0984075E-1,3.2701576E-1,-1.5800475E-1,4.5998198E-1,-5.463923E-1,3.516037E-2,1.9703832E-2,-2.1861534E-1,4.6618983E-1,1.2319887E0,1.7782332E-1,8.5899454E-1,-3.9308682E-1,5.559973E-1,4.356188E-2,-3.1620732E-1,-3.4316358E-1,4.3126413E-1,1.8629728E-1,5.30685E-1,-3.164124E-1,1.4298729E-3,1.0081095E0,-5.2716203E-2,-1.0854748E-1,-5.986146E-1,5.8903813E-2,-3.3707708E-1,-4.216556E-2,6.3337606E-1,-2.5638777E-1,-3.7835546E-2,-6.644925E-2,5.9864885E-1,2.6163533E-1,1.2706916E0,2.6989397E-1,-5.6451434E-1,1.0095396E0,-1.8467617E-1,3.8616845E-1,-6.744719E-2,6.468306E-1,-2.6972225E-1,-2.7117489E-2,7.3822635E-1,-3.5258874E-1,6.3705045E-1,-4.3797053E-2,3.1687852E-2,-4.539011E-2,7.5125635E-2,7.2743826E-2,2.4260913E-3,6.1688967E-2,-2.7350634E-2,1.1828109E-2,-3.9478432E-2,-3.0994222E-3,1.2876007E-1,1.1043864E-1,-2.8465549E-2,-3.0359706E-2,8.53807E-2,-3.966046E-2,5.244696E-2,-6.309312E-2,-1.3769328E-3,-1.5411829E-3,-4.8484277E-2,4.54025E-2,-1.1070945E-2,1.0069519E-3,1.0596813E-1,-3.1699862E-2,-7.85318E-3,1.3138245E-1,-1.4280343E-2,-3.6040053E-2,7.3281646E-2,8.4755175E-2,-4.283252E-2,2.299648E-2,1.298463E-1,9.656811E-3,4.810433E-2,4.0253635E-2,-6.5403275E-2,6.176768E-2,1.2030341E-1,1.0260747E-1,-5.68535E-2,-1.32227605E-2,8.4755175E-2,-1.4652495E-2,7.516938E-2,-6.6742115E-2,8.0192976E-2,1.5937744E-2,-2.1208925E-2,-1.8685687E-2,1.2778644E-1,-2.0024618E-2,-5.975711E-2,9.509606E-2,-7.0054387E-4],"categories":[],"categories_nodes":[],"categories_segments":[],"categories_sizes":[],"default_left":[0,0,0,0,0,0,0,0,0,0,0,0,0,0,0,0,0,0,0,0,0,0,0,0,0,0,0,0,0,0,0,0,0,0,0,0,0,0,0,0,0,0,0,0,0,0,0,0,0,0,0,0,0,0,0,0,0,0,0,0,0,0,0,0,0,0,0,0,0,0,0,0,0,0,0,0,0,0,0,0,0,0,0,0,0,0,0,0,0,0,0,0,0,0,0,0,0,0,0,0,0,0,0,0,0,0,0,0,0,0,0,0,0,0,0,0,0,0,0,0,0],"id":1,"left_children":[1,3,5,7,9,11,13,15,17,19,21,23,25,27,29,31,33,35,37,39,41,43,45,47,49,51,53,55,57,59,61,63,65,67,69,71,73,75,77,79,81,-1,83,85,87,89,91,-1,93,95,97,99,101,103,105,107,-1,109,111,113,115,117,119,-1,-1,-1,-1,-1,-1,-1,-1,-1,-1,-1,-1,-1,-1,-1,-1,-1,-1,-1,-1,-1,-1,-1,-1,-1,-1,-1,-1,-1,-1,-1,-1,-1,-1,-1,-1,-1,-1,-1,-1,-1,-1,-1,-1,-1,-1,-1,-1,-1,-1,-1,-1,-1,-1,-1,-1,-1,-1],"loss_changes":[9.915788E1,2.9490599E1,3.9288605E1,1.9900755E1,9.935593E0,2.1554115E1,2.442387E1,1.4524221E1,2.8771418E1,1.609951E0,1.2387966E1,1.9705284E1,3.0151768E1,1.0286732E1,9.454721E0,1.3361853E1,7.9840794E0,1.4455305E1,2.4439262E1,1.87924E0,1.4188253E0,1.0444329E1,7.3365326E0,1.2248009E1,1.9893723E0,1.8724083E1,1.367421E1,3.11542E0,8.498447E0,1.3147028E1,3.7117977E0,4.749812E0,9.398146E0,1.47424E1,8.120117E0,9.827539E0,1.1977009E1,5.540413E0,1.0672599E1,2.0829446E0,1.4229527E0,0E0,1.9100699E-1,8.559461E0,6.683239E0,9.566223E0,2.6734592E1,0E0,9.445221E0,1.8307228E0,1.4122314E0,8.825499E0,2.8868494E0,4.9570847E0,6.0056934E0,1.0903482E0,0E0,8.452637E0,5.5235863E0,8.4383E0,1.2582332E1,3.5190754E0,8.2602966E-1,0E0,0E0,0E0,0E0,0E0,0E0,0E0,0E0,0E0,0E0,0E0,0E0,0E0,0E0,0E0,0E0,0E0,0E0,0E0,0E0,0E0,0E0,0E0,0E0,0E0,0E0,0E0,0E0,0E0,0E0,0E0,0E0,0E0,0E0,0E0,0E0,0E0,0E0,0E0,0E0,0E0,0E0,0E0,0E0,0E0,0E0,0E0,0E0,0E0,0E0,0E0,0E0,0E0,0E0,0E0,0E0,0E0,0E0],"parents":[2147483647,0,0,1,1,2,2,3,3,4,4,5,5,6,6,7,7,8,8,9,9,10,10,11,11,12,12,13,13,14,14,15,15,16,16,17,17,18,18,19,19,20,20,21,21,22,22,23,23,24,24,25,25,26,26,27,27,28,28,29,29,30,30,31,31,32,32,33,33,34,34,35,35,36,36,37,37,38,38,39,39,40,40,42,42,43,43,44,44,45,45,46,46,48,48,49,49,50,50,51,51,52,52,53,53,54,54,55,55,57,57,58,58,59,59,60,60,61,61,62,62],"right_children":[2,4,6,8,10,12,14,16,18,20,22,24,26,28,30,32,34,36,38,40,42,44,46,48,50,52,54,56,58,60,62,64,66,68,70,72,74,76,78,80,82,-1,84,86,88,90,92,-1,94,96,98,100,102,104,106,108,-1,110,112,114,116,118,120,-1,-1,-1,-1,-1,-1,-1,-1,-1,-1,-1,-1,-1,-1,-1,-1,-1,-1,-1,-1,-1,-1,-1,-1,-1,-1,-1,-1,-1,-1,-1,-1,-1,-1,-1,-1,-1,-1,-1,-1,-1,-1,-1,-1,-1,-1,-1,-1,-1,-1,-1,-1,-1,-1,-1,-1,-1,-1],"split_conditions":[1.0028465E0,-2.4354614E-1,1.5050207E0,-2.6371032E-1,-5.3886116E-1,-8.59701E-1,-9.398405E-1,-4.4656098E-1,8.828853E-1,2.7692747E0,2.0550466E-1,1.2067991E-1,1.0408394E0,-1.3621005E0,-3.326358E-1,-6.344956E-1,-1.50212E-3,4.1687396E-1,-8.355766E-1,-1.8121694E0,6.022856E-1,1.5014976E0,1.6581446E0,-1.5986747E0,-1.5216986E0,1.6201888E0,1.0921868E0,3.9030468E-1,1.0748167E0,1.2155653E0,1.2198454E0,1.3610076E0,-5.472871E-1,-2.946621E-1,6.079933E-1,-5.5403554E-1,7.7994436E-1,6.764109E-1,1.4169571E0,8.879456E-1,2.9280481E0,5.8903813E-2,-6.216823E-1,-1.1407807E0,-2.0880988E-1,6.1929834E-1,-5.9485644E-1,-6.644925E-2,-1.7794741E0,6.851787E-1,-1.5296508E0,-3.6848895E-2,6.0268855E-1,-3.6732367E-1,-1.8857068E0,3.6671063E-1,-6.744719E-2,-1.3378798E0,2.059375E0,-5.700554E-1,-2.2309986E-1,3.7956018E-2,2.0853522E0,-4.3797053E-2,3.1687852E-2,-4.539011E-2,7.5125635E-2,7.2743826E-2,2.4260913E-3,6.1688967E-2,-2.7350634E-2,1.1828109E-2,-3.9478432E-2,-3.0994222E-3,1.2876007E-1,1.1043864E-1,-2.8465549E-2,-3.0359706E-2,8.53807E-2,-3.966046E-2,5.244696E-2,-6.309312E-2,-1.3769328E-3,-1.5411829E-3,-4.8484277E-2,4.54025E-2,-1.1070945E-2,1.0069519E-3,1.0596813E-1,-3.1699862E-2,-7.85318E-3,1.3138245E-1,-1.4280343E-2,-3.6040053E-2,7.3281646E-2,8.4755175E-2,-4.283252E-2,2.299648E-2,1.298463E-1,9.656811E-3,4.810433E-2,4.0253635E-2,-6.5403275E-2,6.176768E-2,1.2030341E-1,1.0260747E-1,-5.68535E-2,-1.32227605E-2,8.4755175E-2,-1.4652495E-2,7.516938E-2,-6.6742115E-2,8.0192976E-2,1.5937744E-2,-2.1208925E-2,-1.8685687E-2,1.2778644E-1,-2.0024618E-2,-5.975711E-2,9.509606E-2,-7.0054387E-4],"split_indices":[7,19,7,26,27,12,22,18,16,18,27,18,24,12,12,24,7,26,19,24,3,3,24,15,22,15,22,16,27,0,4,5,26,18,10,18,23,10,2,14,1,0,0,3,27,3,16,0,0,4,0,26,18,6,18,2,0,13,3,27,19,18,0,0,0,0,0,0,0,0,0,0,0,0,0,0,0,0,0,0,0,0,0,0,0,0,0,0,0,0,0,0,0,0,0,0,0,0,0,0,0,0,0,0,0,0,0,0,0,0,0,0,0,0,0,0,0,0,0,0,0],"split_type":[0,0,0,0,0,0,0,0,0,0,0,0,0,0,0,0,0,0,0,0,0,0,0,0,0,0,0,0,0,0,0,0,0,0,0,0,0,0,0,0,0,0,0,0,0,0,0,0,0,0,0,0,0,0,0,0,0,0,0,0,0,0,0,0,0,0,0,0,0,0,0,0,0,0,0,0,0,0,0,0,0,0,0,0,0,0,0,0,0,0,0,0,0,0,0,0,0,0,0,0,0,0,0,0,0,0,0,0,0,0,0,0,0,0,0,0,0,0,0,0,0],"sum_hessian":[3.4613896E3,2.4789595E3,9.824301E2,1.041808E3,1.4371515E3,4.945161E2,4.87914E2,3.8469107E2,6.5711694E2,8.894822E1,1.3482032E3,1.3894711E2,3.55569E2,1.22002525E2,3.6591147E2,1.0366246E2,2.810286E2,5.71341E2,8.577594E1,8.4029564E1,4.918659E0,2.7338245E2,1.0748208E3,7.812322E1,6.0823895E1,2.707249E2,8.484407E1,1.20202465E1,1.09982285E2,2.66361E2,9.955049E1,7.2686195E1,3.0976265E1,1.673313E2,1.136973E2,2.860996E2,2.8524136E2,4.0988598E1,4.4787346E1,9.282359E0,7.47472E1,1.7428808E0,3.1757784E0,2.4919075E2,2.4191698E1,8.887134E2,1.8610747E2,7.7711754E0,7.035205E1,2.6305792E0,5.8193314E1,2.4141867E2,2.9306248E1,7.417705E1,1.0667022E1,3.0901473E0,8.9300995E0,9.927786E1,1.0704417E1,2.4263481E2,2.3726171E1,9.649774E1,3.052751E0,6.3851208E1,8.834991E0,8.113675E0,2.286259E1,3.775485E1,1.2957645E2,1.0289993E2,1.0797369E1,4.3624596E1,2.4247502E2,2.7917923E2,6.0621476E0,3.8283226E1,2.7053716E0,3.5600094E1,9.187251E0,6.6360607E0,2.6462982E0,7.0758514E1,3.9886844E0,1.3472664E0,1.8285118E0,2.9562605E1,2.1962814E2,1.0241331E1,1.3950367E1,6.622465E2,2.2646687E2,1.2581424E1,1.7352605E2,8.427176E0,6.192487E1,1.2990316E0,1.3315476E0,1.7537196E0,5.6439594E1,1.333847E2,1.0803397E2,2.1867301E0,2.7119518E1,2.5905582E1,4.8271465E1,2.1650527E0,8.501968E0,1.7911156E0,1.2990316E0,1.1543881E1,8.7733986E1,8.082237E0,2.6221807E0,1.20888855E2,1.21745964E2,8.982136E0,1.4744036E1,6.061908E1,3.5878662E1,1.7320422E0,1.320709E0],"tree_param":{"num_deleted":"0","num_feature":"28","num_nodes":"121","size_leaf_vector":"1"}},{"base_weights":[-1.0745481E-3,-6.58541E-2,2.4285465E-1,2.4052247E-2,-3.7579164E-1,1.6545843E-1,7.795663E-1,1.9518654E-1,-1.0978312E-1,-5.624907E-1,-2.1596129E-1,-7.132189E-2,1.9446504E-1,9.59494E-1,-1.7536446E-1,5.6481693E-2,4.091315E-1,1.2319815E0,-1.2867075E-1,8.959417E-2,-5.8196676E-1,1.6117576E-1,-3.6916116E-1,2.2799262E-1,-5.679614E-1,1.1370775E0,2.2542813E-1,1.0905069E-1,-5.3100854E-1,9.329353E-1,5.798871E-3,9.0784264E-1,1.54113E-1,1.3918608E-1,2.8178406E-1,8.3604574E-1,-1.4054337E-1,5.956013E-1,-6.013872E-1,7.13042E-1,-2.7677393E-1,5.060476E-2,-5.3755206E-1,1.360651E-1,2.0647117E-1,-7.1526915E-2,1.17402345E-1,5.6678253E-1,1.3711383E0,-6.669942E-2,1.1941806E-1,4.3382656E-2,-6.831835E-2,1.22463465E-1,3.6607122E-3,1.4290213E-2,-3.3787146E-2,-5.5645476E-3,1.00877605E-1,-2.645027E-2,4.2792313E-2,8.5664816E-2,-4.2377688E-2,1.3481273E-1,-2.457445E-2,-1.043339E-2,-4.659996E-2,-1.2349202E-2,1.0340494E-1,-2.283025E-2,-6.449022E-2,1.1301923E-1,-6.785946E-2,7.9119384E-2,-4.413541E-2,7.6545E-2,-3.1873118E-2,1.2784314E-1,-6.099973E-2,1.1585023E-1,1.8428952E-2,-5.2004732E-2,7.288129E-2,-5.4155584E-2,7.688349E-2,1.4331956E-1,7.3780246E-2],"categories":[],"categories_nodes":[],"categories_segments":[],"categories_sizes":[],"default_left":[0,0,0,0,0,0,0,0,0,0,0,0,0,0,0,0,0,0,0,0,0,0,0,0,0,0,0,0,0,0,0,0,0,0,0,0,0,0,0,0,0,0,0,0,0,0,0,0,0,0,0,0,0,0,0,0,0,0,0,0,0,0,0,0,0,0,0,0,0,0,0,0,0,0,0,0,0,0,0,0,0,0,0,0,0,0,0],"id":2,"left_children":[1,3,5,7,9,11,13,15,17,19,21,-1,23,25,27,29,31,33,35,-1,37,39,41,43,45,47,49,-1,51,53,55,57,59,-1,61,63,65,67,69,71,73,75,77,-1,79,-1,81,83,85,-1,-1,-1,-1,-1,-1,-1,-1,-1,-1,-1,-1,-1,-1,-1,-1,-1,-1,-1,-1,-1,-1,-1,-1,-1,-1,-1,-1,-1,-1,-1,-1,-1,-1,-1,-1,-1,-1],"loss_changes":[5.428905E1,7.565536E1,2.9818531E1,4.8239388E1,1.8095123E1,1.6230213E1,1.5733494E1,2.7403866E1,3.0113594E1,8.5015335E0,1.9156437E1,0E0,1.5772617E1,9.70076E0,7.42587E0,2.4953758E1,4.607283E1,2.114767E0,1.3478197E1,0E0,6.712303E0,2.3442127E1,1.6662876E1,1.4025524E1,2.715355E0,7.3996124E0,1.473815E1,0E0,2.138325E0,7.984358E0,2.5123081E1,1.1992043E1,2.7808722E1,0E0,1.8355986E0,8.266985E0,1.3541029E1,1.707391E0,4.2985E0,2.5632607E1,9.900839E0,1.827518E1,2.2889004E1,0E0,1.1974161E1,0E0,2.5108895E0,4.789914E0,6.2189484E-1,0E0,0E0,0E0,0E0,0E0,0E0,0E0,0E0,0E0,0E0,0E0,0E0,0E0,0E0,0E0,0E0,0E0,0E0,0E0,0E0,0E0,0E0,0E0,0E0,0E0,0E0,0E0,0E0,0E0,0E0,0E0,0E0,0E0,0E0,0E0,0E0,0E0,0E0],"parents":[2147483647,0,0,1,1,2,2,3,3,4,4,5,5,6,6,7,7,8,8,9,9,10,10,12,12,13,13,14,14,15,15,16,16,17,17,18,18,20,20,21,21,22,22,23,23,24,24,25,25,26,26,28,28,29,29,30,30,31,31,32,32,34,34,35,35,36,36,37,37,38,38,39,39,40,40,41,41,42,42,44,44,46,46,47,47,48,48],"right_children":[2,4,6,8,10,12,14,16,18,20,22,-1,24,26,28,30,32,34,36,-1,38,40,42,44,46,48,50,-1,52,54,56,58,60,-1,62,64,66,68,70,72,74,76,78,-1,80,-1,82,84,86,-1,-1,-1,-1,-1,-1,-1,-1,-1,-1,-1,-1,-1,-1,-1,-1,-1,-1,-1,-1,-1,-1,-1,-1,-1,-1,-1,-1,-1,-1,-1,-1,-1,-1,-1,-1,-1,-1],"split_conditions":[9.273122E-1,2.988707E-1,1.8146614E0,-1.50212E-3,3.008569E-2,-1.6883909E0,2.4517379E0,-3.204257E-1,-2.4157743E0,-1.3497908E0,5.070219E-1,-7.132189E-2,2.7692747E0,2.3357658E0,-1.50212E-3,-2.4204836E0,-5.758469E-1,1.2481886E0,-1.7519138E0,8.959417E-2,-5.9485644E-1,5.0067216E-1,3.9127016E-1,-1.4691508E0,1.3610076E0,1.0974582E0,1.8680464E0,1.0905069E-1,3.9030468E-1,-8.308639E-1,4.5313954E-1,-1.6243862E0,1.894729E-1,1.3918608E-1,2.0385555E-3,-1.120145E0,1.5397699E0,7.176E-1,-1.3100443E0,1.0064712E0,3.8338768E-1,7.732033E-1,-2.1560695E0,1.360651E-1,-5.7838327E-1,-7.1526915E-2,1.8680464E0,-6.960473E-1,2.0026028E0,-6.669942E-2,1.1941806E-1,4.3382656E-2,-6.831835E-2,1.22463465E-1,3.6607122E-3,1.4290213E-2,-3.3787146E-2,-5.5645476E-3,1.00877605E-1,-2.645027E-2,4.2792313E-2,8.5664816E-2,-4.2377688E-2,1.3481273E-1,-2.457445E-2,-1.043339E-2,-4.659996E-2,-1.2349202E-2,1.0340494E-1,-2.283025E-2,-6.449022E-2,1.1301923E-1,-6.785946E-2,7.9119384E-2,-4.413541E-2,7.6545E-2,-3.1873118E-2,1.2784314E-1,-6.099973E-2,1.1585023E-1,1.8428952E-2,-5.2004732E-2,7.288129E-2,-5.4155584E-2,7.688349E-2,1.4331956E-1,7.3780246E-2],"split_indices":[26,18,21,7,25,27,17,26,17,20,23,0,18,20,7,4,25,23,21,0,16,7,27,19,5,26,16,0,16,26,23,19,27,0,13,17,22,12,23,17,18,18,4,0,18,0,16,23,11,0,0,0,0,0,0,0,0,0,0,0,0,0,0,0,0,0,0,0,0,0,0,0,0,0,0,0,0,0,0,0,0,0,0,0,0,0,0],"split_type":[0,0,0,0,0,0,0,0,0,0,0,0,0,0,0,0,0,0,0,0,0,0,0,0,0,0,0,0,0,0,0,0,0,0,0,0,0,0,0,0,0,0,0,0,0,0,0,0,0,0,0,0,0,0,0,0,0,0,0,0,0,0,0,0,0,0,0,0,0,0,0,0,0,0,0,0,0,0,0,0,0,0,0,0,0,0,0],"sum_hessian":[3.4336504E3,2.7137087E3,7.199416E2,2.1042366E3,6.094723E2,6.3035046E2,8.9591095E1,9.232391E2,1.1809973E3,2.7994595E2,3.2952634E2,1.9390146E1,6.109603E2,7.538273E1,1.4208366E1,5.6087585E2,3.6236322E2,1.5502236E1,1.1654951E3,3.0961118E0,2.7684985E2,9.517614E1,2.343502E2,5.858966E2,2.5063751E1,6.0256584E1,1.51261425E1,2.6631005E0,1.1545265E1,2.970924E1,5.311666E2,1.2173662E2,2.406266E2,1.2871652E1,2.6305842E0,1.3325262E1,1.1521699E3,4.0103693E0,2.7283948E2,4.18333E1,5.334284E1,6.7295364E1,1.6705484E2,9.764702E0,5.761319E2,2.0593813E1,4.4699383E0,1.8529799E1,4.1726788E1,8.035379E0,7.0907626E0,1.3207115E0,1.0224554E1,2.213831E1,7.5709305E0,3.801103E2,1.5105637E2,1.158618E1,1.1015044E2,9.516587E1,1.4546072E2,1.3315502E0,1.2990341E0,8.877002E0,4.4482613E0,1.0380045E3,1.14165306E2,1.7911191E0,2.2192504E0,2.9151329E1,2.4368814E2,3.2330063E1,9.503236E0,6.614396E0,4.6728443E1,2.2559404E1,4.4735962E1,5.770051E0,1.6128479E2,1.1951436E1,5.641805E2,2.2615268E0,2.2084117E0,2.5980682E0,1.5931729E1,3.6852833E1,4.8739524E0],"tree_param":{"num_deleted":"0","num_feature":"28","num_nodes":"87","size_leaf_vector":"1"}},{"base_weights":[-3.0899895E-3,5.718965E-2,-2.2991545E-1,-1.4108524E-2,3.1933582E-1,-2.5270405E-1,1.0945743E0,-6.674018E-2,1.7561404E-1,4.610461E-1,-9.2805885E-2,-2.8229928E-1,6.30189E-1,-8.764307E-4,1.2315186E-1,-1.8107663E-1,4.5990992E-2,3.264047E-1,-1.7081207E-1,-6.257447E-2,6.116826E-1,4.528063E-1,-3.186752E-1,-1.4689074E-1,-4.3533367E-1,9.456582E-1,-6.072667E-2,-1.9626774E-1,9.509605E-1,1.4043477E-1,-1.3085186E-1,9.9338466E-1,2.494731E-1,-2.5576025E-1,4.9162844E-1,2.4520363E-1,-6.11876E-1,4.7010005E-1,1.0447106E0,-6.3641466E-2,1.0288264E0,-4.661257E-1,7.637304E-1,-2.0869753E-1,5.0327706E-1,3.580524E-1,-5.0988805E-1,-4.897457E-2,1.1209596E0,1.5430122E-2,-2.3922047E-2,-1.9061057E-2,1.2487372E-1,2.2668947E-2,-2.4848105E-2,-6.695856E-2,-1.6283821E-3,1.2119152E-1,5.039548E-3,1.8014E-2,1.14068426E-1,-6.4034306E-2,-6.247093E-3,7.885256E-2,-3.7476443E-2,-2.7797773E-2,5.328095E-2,-6.6473335E-2,1.2297307E-2,5.449999E-2,-2.3289476E-2,1.2287976E-1,1.2536826E-2,-3.1462964E-2,8.199708E-2,-4.6721887E-2,1.1857428E-1,-5.1798966E-2,1.8841822E-3,1.1443867E-1,-3.393511E-2,-2.606529E-2,6.450096E-2,-6.566544E-2,8.8088356E-2,-2.6071249E-2,7.643504E-2,-5.7884216E-2,-1.9836469E-2,4.336351E-4,1.2145767E-1],"categories":[],"categories_nodes":[],"categories_segments":[],"categories_sizes":[],"default_left":[0,0,0,0,0,0,0,0,0,0,0,0,0,0,0,0,0,0,0,0,0,0,0,0,0,0,0,0,0,0,0,0,0,0,0,0,0,0,0,0,0,0,0,0,0,0,0,0,0,0,0,0,0,0,0,0,0,0,0,0,0,0,0,0,0,0,0,0,0,0,0,0,0,0,0,0,0,0,0,0,0,0,0,0,0,0,0,0,0,0,0],"id":3,"left_children":[1,3,5,7,9,11,13,15,17,19,21,23,25,-1,-1,27,29,31,33,35,37,39,41,43,45,47,-1,49,51,53,55,57,59,61,63,65,67,69,71,73,75,77,79,81,83,85,87,-1,89,-1,-1,-1,-1,-1,-1,-1,-1,-1,-1,-1,-1,-1,-1,-1,-1,-1,-1,-1,-1,-1,-1,-1,-1,-1,-1,-1,-1,-1,-1,-1,-1,-1,-1,-1,-1,-1,-1,-1,-1,-1,-1],"loss_changes":[4.7114056E1,5.0886883E1,2.2113056E1,2.1392616E1,3.4042866E1,1.8783058E1,1.8881025E0,2.1622807E1,2.4360914E1,3.422046E1,1.8603014E1,1.422678E1,9.710428E0,0E0,0E0,1.4507212E1,1.413453E1,1.6403774E1,8.103094E0,1.66718E1,2.0147919E1,1.3233712E1,1.735622E1,1.4868813E1,1.9302197E1,5.3400097E0,0E0,1.2422693E1,4.0445576E0,1.8554678E1,1.8181978E1,6.7855873E0,1.785543E1,9.3490925E0,4.5281725E0,9.679798E0,1.4559584E0,1.3580593E1,1.3745331E1,5.6430025E0,5.4800835E0,2.383318E0,5.909792E0,1.508062E1,1.4676276E1,7.327285E0,6.2410126E0,0E0,1.800251E0,0E0,0E0,0E0,0E0,0E0,0E0,0E0,0E0,0E0,0E0,0E0,0E0,0E0,0E0,0E0,0E0,0E0,0E0,0E0,0E0,0E0,0E0,0E0,0E0,0E0,0E0,0E0,0E0,0E0,0E0,0E0,0E0,0E0,0E0,0E0,0E0,0E0,0E0,0E0,0E0,0E0,0E0],"parents":[2147483647,0,0,1,1,2,2,3,3,4,4,5,5,6,6,7,7,8,8,9,9,10,10,11,11,12,12,15,15,16,16,17,17,18,18,19,19,20,20,21,21,22,22,23,23,24,24,25,25,27,27,28,28,29,29,30,30,31,31,32,32,33,33,34,34,35,35,36,36,37,37,38,38,39,39,40,40,41,41,42,42,43,43,44,44,45,45,46,46,48,48],"right_children":[2,4,6,8,10,12,14,16,18,20,22,24,26,-1,-1,28,30,32,34,36,38,40,42,44,46,48,-1,50,52,54,56,58,60,62,64,66,68,70,72,74,76,78,80,82,84,86,88,-1,90,-1,-1,-1,-1,-1,-1,-1,-1,-1,-1,-1,-1,-1,-1,-1,-1,-1,-1,-1,-1,-1,-1,-1,-1,-1,-1,-1,-1,-1,-1,-1,-1,-1,-1,-1,-1,-1,-1,-1,-1,-1,-1],"split_conditions":[9.273122E-1,3.4872463E-1,1.9731485E0,5.282164E-1,1.0028465E0,1.8091772E0,-9.7527105E-1,-2.4294637E-1,7.658182E-2,-4.8564908E-1,-1.5027961E-1,5.0067216E-1,3.222508E-1,-8.764307E-4,1.2315186E-1,1.9535213E0,8.521232E-1,-1.0128634E0,1.5366544E0,1.9861393E-1,7.5203615E-1,-1.8415678E-1,1.8686323E0,2.8532076E0,-1.3026911E0,-1.4462142E0,-6.072667E-2,-1.2845868E0,-1.2086592E0,3.7233055E-2,-1.5123922E0,-6.6071784E-1,1.5014976E0,-5.4799986E-1,2.6750612E-1,-4.1883057E-1,1.3610076E0,1.3754659E0,9.667711E-1,8.102247E-2,-8.1155604E-1,1.8807985E0,1.2289213E0,2.2317653E0,-1.0058507E0,3.6232445E-1,1.8347579E0,-4.897457E-2,-1.5984194E0,1.5430122E-2,-2.3922047E-2,-1.9061057E-2,1.2487372E-1,2.2668947E-2,-2.4848105E-2,-6.695856E-2,-1.6283821E-3,1.2119152E-1,5.039548E-3,1.8014E-2,1.14068426E-1,-6.4034306E-2,-6.247093E-3,7.885256E-2,-3.7476443E-2,-2.7797773E-2,5.328095E-2,-6.6473335E-2,1.2297307E-2,5.449999E-2,-2.3289476E-2,1.2287976E-1,1.2536826E-2,-3.1462964E-2,8.199708E-2,-4.6721887E-2,1.1857428E-1,-5.1798966E-2,1.8841822E-3,1.1443867E-1,-3.393511E-2,-2.606529E-2,6.450096E-2,-6.566544E-2,8.8088356E-2,-2.6071249E-2,7.643504E-2,-5.7884216E-2,-1.9836469E-2,4.336351E-4,1.2145767E-1],"split_indices":[26,18,23,10,7,25,2,20,26,0,26,7,20,0,0,24,20,24,15,20,20,15,25,16,20,3,0,26,2,17,4,26,3,25,0,10,5,16,3,4,24,24,20,26,7,5,26,0,13,0,0,0,0,0,0,0,0,0,0,0,0,0,0,0,0,0,0,0,0,0,0,0,0,0,0,0,0,0,0,0,0,0,0,0,0,0,0,0,0,0,0],"split_type":[0,0,0,0,0,0,0,0,0,0,0,0,0,0,0,0,0,0,0,0,0,0,0,0,0,0,0,0,0,0,0,0,0,0,0,0,0,0,0,0,0,0,0,0,0,0,0,0,0,0,0,0,0,0,0,0,0,0,0,0,0,0,0,0,0,0,0,0,0,0,0,0,0,0,0,0,0,0,0,0,0,0,0,0,0,0,0,0,0,0,0],"sum_hessian":[3.4438223E3,2.7213596E3,7.2246265E2,2.1402131E3,5.8114624E2,7.110381E2,1.14246025E1,1.6759342E3,4.6427902E2,4.3236407E2,1.487822E2,6.8863477E2,2.2403305E1,1.3647811E0,1.0059821E1,8.31742E2,8.4419226E2,3.2351767E2,1.4076137E2,9.672551E1,3.3563855E2,4.3265324E1,1.0551688E2,3.6639734E2,3.2223743E2,1.8040083E1,4.363221E0,8.215441E2,1.0197887E1,5.504354E2,2.937568E2,3.222463E1,2.9129303E2,1.25306564E2,1.5454803E1,6.2346096E1,3.4379414E1,2.5450981E2,8.112873E1,2.32813E1,1.9984022E1,9.3367294E1,1.2149581E1,3.3521033E2,3.1187029E1,2.735293E1,2.948845E2,1.7681742E0,1.627191E1,8.938824E1,7.321559E2,2.1842256E0,8.013662E0,4.5085977E2,9.9575645E1,5.0665905E1,2.4309091E2,2.5930296E1,6.2943325E0,2.7138254E2,1.991048E1,4.1139496E1,8.416707E1,1.1577335E1,3.877468E0,2.2127546E1,4.021855E1,3.216147E1,2.2179444E0,2.3020737E2,2.430246E1,6.731344E1,1.3815293E1,1.863266E1,4.648639E0,1.7093673E0,1.8274654E1,8.428545E1,9.081845E0,9.00474E0,3.1448412E0,3.1663504E2,1.8575264E1,7.477783E0,2.3709246E1,1.0983742E1,1.6369188E1,2.4073988E2,5.4144615E1,1.3396364E0,1.4932273E1],"tree_param":{"num_deleted":"0","num_feature":"28","num_nodes":"91","size_leaf_vector":"1"}},{"base_weights":[-2.7257237E-3,-9.892038E-2,2.3597187E-1,3.4406453E-2,-1.8123992E-1,4.199024E-1,4.73227E-2,-1.7393412E-2,3.6644277E-1,-5.1524603E-1,-1.5782964E-1,7.680539E-1,3.0515802E-1,-4.6159238E-2,4.0379784E-1,1.9405997E-1,-1.3840891E-1,8.570878E-1,-7.4934706E-2,-5.76278E-1,-1.8502556E-1,1.0344139E-2,-2.1179332E-1,4.743989E-1,1.1452298E0,1.7627397E-1,7.2453815E-1,1.7829603E-2,-3.9029703E-1,1.0737487E-1,6.823213E-1,-2.1841688E-1,3.095494E-1,-6.509411E-2,-4.146409E-1,2.5984487E-1,1.0827365E0,-2.4518E-1,4.640879E-1,-5.9526306E-1,7.339584E-3,3.5420257E-1,-5.724181E-1,-3.7783006E-1,7.030725E-2,-2.613151E-1,6.1088283E-2,-6.38122E-2,5.922642E-1,-4.171527E-2,1.1924263E0,2.4339114E-1,-4.648601E-1,8.442822E-1,-2.2415636E-1,1.0476092E-1,-3.0201343E-1,-4.4013372E-1,5.102019E-1,8.1919825E-1,-4.7192577E-2,1.1273792E0,2.1200551E-1,8.019479E-2,-3.6567E-2,-2.6438866E-2,3.9775513E-2,-1.8085402E-2,2.4767557E-2,5.7559233E-2,-4.8809446E-2,6.841747E-2,-3.1121463E-2,5.697573E-2,1.22763194E-1,3.8299598E-2,-3.5826728E-2,-2.5684303E-2,7.5138696E-2,-4.376466E-2,-6.971943E-2,6.996157E-2,-4.8708405E-2,-6.574814E-2,7.41445E-4,5.6420248E-2,-5.3682562E-2,3.8630439E-3,8.188384E-2,-2.1485014E-2,-4.932797E-2,1.1168464E-1,-4.977083E-3,-4.240877E-2,7.317984E-2,1.24412194E-1,4.6311603E-3,6.21414E-2,1.53245125E-2,2.707024E-2,-5.8256734E-2,3.1109123E-2,9.551172E-2,6.6104315E-2,-5.3680748E-2,-2.6238276E-2,1.7798332E-2,1.7939145E-2,-4.3021817E-2,-1.931282E-2,-6.371951E-2,-2.8005368E-3,8.3927386E-2,1.2140997E-1,-2.383576E-2,-2.79641E-2,5.0221123E-2,1.1869507E-1,-8.5347996E-4,-4.0387858E-2,5.7445567E-2],"categories":[],"categories_nodes":[],"categories_segments":[],"categories_sizes":[],"default_left":[0,0,0,0,0,0,0,0,0,0,0,0,0,0,0,0,0,0,0,0,0,0,0,0,0,0,0,0,0,0,0,0,0,0,0,0,0,0,0,0,0,0,0,0,0,0,0,0,0,0,0,0,0,0,0,0,0,0,0,0,0,0,0,0,0,0,0,0,0,0,0,0,0,0,0,0,0,0,0,0,0,0,0,0,0,0,0,0,0,0,0,0,0,0,0,0,0,0,0,0,0,0,0,0,0,0,0,0,0,0,0,0,0,0,0,0,0,0,0,0,0],"id":4,"left_children":[1,3,5,7,9,11,13,15,17,19,21,23,25,27,29,31,33,35,37,39,41,43,45,47,49,51,53,55,57,59,61,63,65,67,69,71,73,75,77,79,-1,81,83,85,87,89,91,-1,93,-1,95,97,99,101,103,105,107,109,111,113,115,117,119,-1,-1,-1,-1,-1,-1,-1,-1,-1,-1,-1,-1,-1,-1,-1,-1,-1,-1,-1,-1,-1,-1,-1,-1,-1,-1,-1,-1,-1,-1,-1,-1,-1,-1,-1,-1,-1,-1,-1,-1,-1,-1,-1,-1,-1,-1,-1,-1,-1,-1,-1,-1,-1,-1,-1,-1,-1,-1],"loss_changes":[7.914297E1,2.6969551E1,3.43335E1,1.6150583E1,1.1796452E1,1.9786636E1,1.6343616E1,2.0829012E1,2.7506382E1,1.8897209E0,1.2898174E1,1.3143608E1,2.0336063E1,8.573261E0,8.338041E0,1.4183069E1,1.0455679E1,7.8168755E0,6.3197556E0,1.0690193E0,3.7381685E0,8.083743E0,1.4554493E1,9.712429E0,4.4341125E0,1.2631764E1,1.0263126E1,9.1784935E0,2.963667E0,5.5994167E0,1.07165165E1,1.0120224E1,1.1845583E1,1.4897832E1,8.164045E0,4.52459E0,2.5187492E0,3.8347611E0,3.6267612E0,9.942856E-1,0E0,2.576406E0,5.094998E-1,7.2637672E0,7.0978613E0,9.710648E0,1.9491606E1,0E0,9.512169E0,0E0,3.0280914E0,8.90143E0,2.5744047E0,4.368477E0,3.3241122E0,7.0204563E0,4.4321337E0,2.7181578E0,6.724077E-1,4.077787E0,5.564173E0,1.8141708E0,6.187518E0,0E0,0E0,0E0,0E0,0E0,0E0,0E0,0E0,0E0,0E0,0E0,0E0,0E0,0E0,0E0,0E0,0E0,0E0,0E0,0E0,0E0,0E0,0E0,0E0,0E0,0E0,0E0,0E0,0E0,0E0,0E0,0E0,0E0,0E0,0E0,0E0,0E0,0E0,0E0,0E0,0E0,0E0,0E0,0E0,0E0,0E0,0E0,0E0,0E0,0E0,0E0,0E0,0E0,0E0,0E0,0E0,0E0,0E0],"parents":[2147483647,0,0,1,1,2,2,3,3,4,4,5,5,6,6,7,7,8,8,9,9,10,10,11,11,12,12,13,13,14,14,15,15,16,16,17,17,18,18,19,19,20,20,21,21,22,22,23,23,24,24,25,25,26,26,27,27,28,28,29,29,30,30,31,31,32,32,33,33,34,34,35,35,36,36,37,37,38,38,39,39,41,41,42,42,43,43,44,44,45,45,46,46,48,48,50,50,51,51,52,52,53,53,54,54,55,55,56,56,57,57,58,58,59,59,60,60,61,61,62,62],"right_children":[2,4,6,8,10,12,14,16,18,20,22,24,26,28,30,32,34,36,38,40,42,44,46,48,50,52,54,56,58,60,62,64,66,68,70,72,74,76,78,80,-1,82,84,86,88,90,92,-1,94,-1,96,98,100,102,104,106,108,110,112,114,116,118,120,-1,-1,-1,-1,-1,-1,-1,-1,-1,-1,-1,-1,-1,-1,-1,-1,-1,-1,-1,-1,-1,-1,-1,-1,-1,-1,-1,-1,-1,-1,-1,-1,-1,-1,-1,-1,-1,-1,-1,-1,-1,-1,-1,-1,-1,-1,-1,-1,-1,-1,-1,-1,-1,-1,-1,-1,-1,-1],"split_conditions":[1.0028465E0,-3.393094E-1,1.5050207E0,8.828853E-1,-6.0366416E-1,-9.064358E-1,4.416176E-1,-2.6371032E-1,-1.1703528E0,2.165029E0,2.4915737E-1,-2.0699497E-1,9.540186E-1,2.7445734E-1,7.284863E-1,-5.9485644E-1,-4.3889877E-1,-5.036764E-1,1.300263E0,2.7692747E0,-4.282944E-1,-1.9275603E-1,1.758616E0,-1.4148986E0,-1.5306503E0,1.6703095E0,1.0921868E0,2.1695092E-1,1.2844449E0,-8.086622E-1,1.5681565E0,-1.4994606E0,-1.3497908E0,2.88955E-1,-1.6029521E0,2.3032781E-1,-2.751067E-1,-2.0180282E-1,-7.7076495E-1,4.458877E-1,7.339584E-3,9.285124E-1,2.3558448E-1,-5.2642685E-1,1.4463423E0,1.2398238E0,-1.5027961E-1,-6.38122E-2,-1.7794741E0,-4.171527E-2,1.3610076E0,-7.518556E-1,6.0268855E-1,-6.351141E-1,-1.8857068E0,-1.3348385E0,9.035685E-3,-3.7248533E-3,-3.6871555E-1,1.3610076E0,1.2155653E0,1.0791061E0,2.9049543E-1,8.019479E-2,-3.6567E-2,-2.6438866E-2,3.9775513E-2,-1.8085402E-2,2.4767557E-2,5.7559233E-2,-4.8809446E-2,6.841747E-2,-3.1121463E-2,5.697573E-2,1.22763194E-1,3.8299598E-2,-3.5826728E-2,-2.5684303E-2,7.5138696E-2,-4.376466E-2,-6.971943E-2,6.996157E-2,-4.8708405E-2,-6.574814E-2,7.41445E-4,5.6420248E-2,-5.3682562E-2,3.8630439E-3,8.188384E-2,-2.1485014E-2,-4.932797E-2,1.1168464E-1,-4.977083E-3,-4.240877E-2,7.317984E-2,1.24412194E-1,4.6311603E-3,6.21414E-2,1.53245125E-2,2.707024E-2,-5.8256734E-2,3.1109123E-2,9.551172E-2,6.6104315E-2,-5.3680748E-2,-2.6238276E-2,1.7798332E-2,1.7939145E-2,-4.3021817E-2,-1.931282E-2,-6.371951E-2,-2.8005368E-3,8.3927386E-2,1.2140997E-1,-2.383576E-2,-2.79641E-2,5.0221123E-2,1.1869507E-1,-8.5347996E-4,-4.0387858E-2,5.7445567E-2],"split_indices":[7,19,7,16,27,12,4,26,27,20,27,26,25,4,20,16,0,7,2,18,25,19,25,15,22,15,22,19,11,19,18,0,20,4,20,11,2,3,19,20,0,14,0,27,0,25,26,0,0,0,5,22,18,12,18,12,22,11,5,5,0,11,12,0,0,0,0,0,0,0,0,0,0,0,0,0,0,0,0,0,0,0,0,0,0,0,0,0,0,0,0,0,0,0,0,0,0,0,0,0,0,0,0,0,0,0,0,0,0,0,0,0,0,0,0,0,0,0,0,0,0],"split_type":[0,0,0,0,0,0,0,0,0,0,0,0,0,0,0,0,0,0,0,0,0,0,0,0,0,0,0,0,0,0,0,0,0,0,0,0,0,0,0,0,0,0,0,0,0,0,0,0,0,0,0,0,0,0,0,0,0,0,0,0,0,0,0,0,0,0,0,0,0,0,0,0,0,0,0,0,0,0,0,0,0,0,0,0,0,0,0,0,0,0,0,0,0,0,0,0,0,0,0,0,0,0,0,0,0,0,0,0,0,0,0,0,0,0,0,0,0,0,0,0,0],"sum_hessian":[3.444762E3,2.4557036E3,9.8905817E2,9.3764764E2,1.518056E3,5.0017148E2,4.888867E2,8.1192896E2,1.2571869E2,9.8054504E1,1.4200016E3,1.2257305E2,3.7759842E2,3.880065E2,1.008802E2,2.953147E2,5.1661426E2,5.909051E1,6.6628174E1,8.212997E1,1.5924534E1,3.451563E2,1.0748452E3,7.018636E1,5.238669E1,2.8992035E2,8.767809E1,3.2797174E2,6.003474E1,4.954097E1,5.1339233E1,6.440335E1,2.3091135E2,4.092348E2,1.0737946E2,1.679345E1,4.2297062E1,5.1049732E1,1.5578444E1,7.987945E1,2.250523E0,6.6933923E0,9.231141E0,4.5474407E1,2.996819E2,9.0978284E2,1.6506247E2,6.3006854E0,6.3885677E1,1.3062527E0,5.1080437E1,2.6300772E2,2.6912605E1,7.7949394E1,9.728698E0,2.5841E2,6.9561745E1,5.7370876E1,2.663867E0,8.071174E0,4.14698E1,2.566011E1,2.5679123E1,7.5614614E0,5.684189E1,3.0494156E1,2.0041719E2,2.9899487E2,1.10239914E2,6.9430785E0,1.00436386E2,9.520842E0,7.272608E0,1.040214E1,3.1894922E1,7.424039E0,4.3625694E1,4.469345E0,1.1109098E1,3.3449665E1,4.6429783E1,4.8645263E0,1.8288662E0,7.9333744E0,1.2977667E0,6.1987705E0,3.9275635E1,2.885236E2,1.1158314E1,7.595609E2,1.5022192E2,1.4822934E1,1.5023953E2,7.4658637E0,5.6419815E1,4.8794067E1,2.28637E0,4.9507412E1,2.1350032E2,3.5332482E0,2.3379356E1,1.4070001E1,6.3879395E1,2.248441E0,7.480257E0,4.2537888E1,2.1587212E2,1.4545305E1,5.501644E1,2.6337862E1,3.1033012E1,1.3578908E0,1.3059762E0,5.7689633E0,2.30221E0,2.9485657E1,1.1984139E1,2.4338764E1,1.3213465E0,9.471174E0,1.6207949E1],"tree_param":{"num_deleted":"0","num_feature":"28","num_nodes":"121","size_leaf_vector":"1"}},{"base_weights":[-3.1021042E-3,2.469162E-2,-4.8402894E-1,1.1849486E0,1.7638093E-2,-5.535498E-1,9.3080634E-1,2.0851415E-2,1.2726997E0,7.419473E-1,8.33892E-3,9.4598114E-2,-5.738412E-1,1.2082284E-1,-4.2169694E-2,4.0865753E-2,1.3184021E-1,1.0152806E0,-5.3600013E-1,-7.990504E-3,3.6250287E-1,-3.6652258E-1,-6.7339194E-1,1.0793235E0,-1.1372755E-2,-1.1689262E-3,-6.433263E-2,7.511127E-2,-7.3201E-2,5.535597E-1,-5.8090204E-1,-5.2721614E-1,3.8940236E-1,-2.057786E-1,-7.0452785E-1,1.12383425E-1,8.8515825E-4,-3.71496E-2,1.08217485E-2,-1.3774986E-2,1.4485123E-2,-1.2797979E-2,7.302699E-2,-6.573549E-2,2.6721617E-2,-6.975244E-2,1.39942905E-2,-5.8886886E-2,9.871932E-2,-4.981559E-2,6.433509E-2,-6.054053E-4,-7.129575E-2],"categories":[],"categories_nodes":[],"categories_segments":[],"categories_sizes":[],"default_left":[0,0,0,0,0,0,0,0,0,0,0,0,0,0,0,0,0,0,0,0,0,0,0,0,0,0,0,0,0,0,0,0,0,0,0,0,0,0,0,0,0,0,0,0,0,0,0,0,0,0,0,0,0],"id":5,"left_children":[1,3,5,7,9,11,13,-1,15,17,19,-1,21,-1,-1,-1,-1,23,25,27,29,31,33,35,-1,-1,-1,37,39,41,43,45,47,49,51,-1,-1,-1,-1,-1,-1,-1,-1,-1,-1,-1,-1,-1,-1,-1,-1,-1,-1],"loss_changes":[4.62304E1,2.6738495E1,1.9101421E1,1.4262314E0,2.1890959E1,6.0422096E0,3.9700994E0,0E0,1.6880798E-1,1.493499E1,1.8571999E1,0E0,3.4463997E0,0E0,0E0,0E0,0E0,2.6017075E0,4.3779373E-1,1.6643679E1,2.5832886E1,7.52349E0,1.597805E0,1.5404854E0,0E0,0E0,0E0,2.0007185E1,2.4240738E1,1.4330456E1,1.7528868E0,5.79111E0,7.0942264E0,2.5263922E0,6.540451E-1,0E0,0E0,0E0,0E0,0E0,0E0,0E0,0E0,0E0,0E0,0E0,0E0,0E0,0E0,0E0,0E0,0E0,0E0],"parents":[2147483647,0,0,1,1,2,2,3,3,4,4,5,5,6,6,8,8,9,9,10,10,12,12,17,17,18,18,19,19,20,20,21,21,22,22,23,23,27,27,28,28,29,29,30,30,31,31,32,32,33,33,34,34],"right_children":[2,4,6,8,10,12,14,-1,16,18,20,-1,22,-1,-1,-1,-1,24,26,28,30,32,34,36,-1,-1,-1,38,40,42,44,46,48,50,52,-1,-1,-1,-1,-1,-1,-1,-1,-1,-1,-1,-1,-1,-1,-1,-1,-1,-1],"split_conditions":[1.8091772E0,-1.7905759E0,1.9198879E0,3.9290047E-1,-1.8007848E0,-1.568269E0,1.9083402E0,2.0851415E-2,-2.3522139E0,1.5350698E0,1.7204303E0,9.4598114E-2,-7.950278E-1,1.2082284E-1,-4.2169694E-2,4.0865753E-2,1.3184021E-1,1.4091692E0,-1.7466272E0,-1.50212E-3,1.1575031E0,7.1671134E-1,-7.117044E-1,1.3419569E0,-1.1372755E-2,-1.1689262E-3,-6.433263E-2,-1.1457287E0,6.048911E-1,6.7762005E-1,2.1993616E0,1.6989926E0,1.5282552E0,1.2199123E0,1.7647985E0,1.12383425E-1,8.8515825E-4,-3.71496E-2,1.08217485E-2,-1.3774986E-2,1.4485123E-2,-1.2797979E-2,7.302699E-2,-6.573549E-2,2.6721617E-2,-6.975244E-2,1.39942905E-2,-5.8886886E-2,9.871932E-2,-4.981559E-2,6.433509E-2,-6.054053E-4,-7.129575E-2],"split_indices":[25,21,27,20,0,21,0,0,8,20,15,0,21,0,0,0,0,5,3,7,23,20,9,13,0,0,0,22,23,17,15,27,0,5,24,0,0,0,0,0,0,0,0,0,0,0,0,0,0,0,0,0,0],"split_type":[0,0,0,0,0,0,0,0,0,0,0,0,0,0,0,0,0,0,0,0,0,0,0,0,0,0,0,0,0,0,0,0,0,0,0,0,0,0,0,0,0,0,0,0,0,0,0,0,0,0,0,0,0],"sum_hessian":[3.4567183E3,3.2687588E3,1.8795946E2,1.874256E1,3.250016E3,1.7973648E2,8.222979E0,1.8238813E0,1.6918678E1,4.0198307E1,3.2098179E3,1.7906127E0,1.7794588E2,6.9118996E0,1.3110787E0,1.3493705E0,1.5569308E1,3.328475E1,6.9135585E0,3.06928E3,1.4053773E2,5.9245758E1,1.1870011E2,3.1539673E1,1.7450773E0,1.3631572E0,5.550401E0,1.3494458E3,1.7198342E3,1.1721315E2,2.3324585E1,4.910882E1,1.0136937E1,7.8852324E0,1.1081488E2,3.0232733E1,1.3069406E0,9.24232E1,1.2570226E3,1.3272914E3,3.9254294E2,2.4190496E1,9.302265E1,2.1602201E1,1.7223847E0,3.9085743E1,1.0023081E1,3.8505402E0,6.286397E0,6.1730313E0,1.7122014E0,1.341928E0,1.09472946E2],"tree_param":{"num_deleted":"0","num_feature":"28","num_nodes":"53","size_leaf_vector":"1"}},{"base_weights":[7.3453253E-3,-1.23692535E-1,9.641763E-2,-1.6934088E-1,1.7843674E-1,1.843948E-1,-1.3485947E-1,-2.53189E-1,-1.9698196E-4,-4.5525637E-1,4.0651056E-1,1.6050297E-1,9.615949E-1,3.9793067E-2,-3.2867074E-1,-5.445033E-1,-2.10543E-1,2.5268054E-1,-1.3136296E-1,4.1276076E-1,-5.618158E-1,9.3758494E-1,2.0219438E-1,4.7911125E-1,9.171954E-2,-6.17651E-2,1.1873286E0,3.5069332E-1,-1.5696421E-1,-4.160918E-1,5.1893514E-1,-7.029275E-1,-3.2681E-1,8.377467E-2,-3.2528213E-1,9.314956E-1,9.894774E-2,-3.8974127E-1,9.491204E-2,-2.5087956E-1,1.0046581E-1,4.9444452E-1,-6.459214E-1,-4.7725167E-2,1.0213963E0,-6.7133117E-1,4.4271788E-1,5.728929E-1,-5.1642257E-1,-4.0420288E-1,1.2839444E-1,3.782047E-2,1.20795526E-1,-2.4724136E-1,6.892598E-1,1.19490005E-1,-2.02759E-1,1.0545424E-1,-4.3762067E-1,9.659364E-1,-2.1235813E-1,-7.374507E-2,1.3996604E-3,-5.4617863E-2,7.938261E-2,-1.1381373E-2,7.0390634E-2,1.1942672E-1,-3.5449084E-2,1.1484231E-1,-5.4315146E-2,3.1962138E-2,-3.036811E-2,-5.2660644E-2,2.5688843E-3,5.3126242E-2,-4.295673E-2,-4.202907E-2,2.617718E-3,-6.577569E-4,7.733692E-2,-6.913414E-2,-1.2322407E-2,1.1603784E-1,2.6416862E-2,1.2665566E-3,-7.165659E-2,9.9227026E-2,1.3566896E-2,1.5873073E-3,7.167178E-2,-6.445509E-2,4.6290956E-2,-5.4855343E-2,2.8143778E-2,1.9290572E-2,-1.1830988E-2,5.683161E-2,-3.705704E-2,1.09198324E-1,-9.232169E-3,-4.249091E-2,8.257161E-3,5.866536E-2,-4.6439E-2,1.1182163E-1,-4.2566996E-2,4.7995977E-2,-5.310392E-2],"categories":[],"categories_nodes":[],"categories_segments":[],"categories_sizes":[],"default_left":[0,0,0,0,0,0,0,0,0,0,0,0,0,0,0,0,0,0,0,0,0,0,0,0,0,0,0,0,0,0,0,0,0,0,0,0,0,0,0,0,0,0,0,0,0,0,0,0,0,0,0,0,0,0,0,0,0,0,0,0,0,0,0,0,0,0,0,0,0,0,0,0,0,0,0,0,0,0,0,0,0,0,0,0,0,0,0,0,0,0,0,0,0,0,0,0,0,0,0,0,0,0,0,0,0,0,0,0,0],"id":6,"left_children":[1,3,5,7,9,11,13,15,17,19,21,23,25,27,29,31,33,35,37,39,41,43,45,47,49,-1,51,53,55,57,59,61,63,65,67,69,71,73,75,77,-1,79,81,-1,83,85,87,89,91,93,95,-1,-1,97,99,-1,101,-1,103,105,107,-1,-1,-1,-1,-1,-1,-1,-1,-1,-1,-1,-1,-1,-1,-1,-1,-1,-1,-1,-1,-1,-1,-1,-1,-1,-1,-1,-1,-1,-1,-1,-1,-1,-1,-1,-1,-1,-1,-1,-1,-1,-1,-1,-1,-1,-1,-1,-1],"loss_changes":[4.0165825E1,1.923659E1,4.170862E1,1.716529E1,2.6673767E1,2.7411163E1,1.914222E1,9.938271E0,1.3371566E1,4.7620716E0,1.449132E1,3.1545124E1,1.6445198E1,1.8293116E1,2.0072603E1,3.3122387E0,2.3919044E1,1.42762985E1,1.5556275E1,2.5820262E0,4.232279E0,4.9123306E0,2.109394E1,2.4168552E1,2.1636206E1,0E0,1.9243622E-1,2.3625942E1,1.1588894E1,8.170227E0,8.540686E0,1.4600582E0,1.15274515E1,2.449366E1,2.302581E1,8.718782E0,1.0170948E1,7.071192E0,3.279902E1,1.7980997E-1,0E0,5.3821295E-1,8.936634E-1,0E0,3.434494E0,6.825838E-1,1.3063404E1,1.8747818E1,3.126637E0,8.26623E0,1.7621534E1,0E0,0E0,4.497741E0,2.3468788E1,0E0,1.1326111E1,0E0,6.8714104E0,3.8679352E0,2.5700226E0,0E0,0E0,0E0,0E0,0E0,0E0,0E0,0E0,0E0,0E0,0E0,0E0,0E0,0E0,0E0,0E0,0E0,0E0,0E0,0E0,0E0,0E0,0E0,0E0,0E0,0E0,0E0,0E0,0E0,0E0,0E0,0E0,0E0,0E0,0E0,0E0,0E0,0E0,0E0,0E0,0E0,0E0,0E0,0E0,0E0,0E0,0E0,0E0],"parents":[2147483647,0,0,1,1,2,2,3,3,4,4,5,5,6,6,7,7,8,8,9,9,10,10,11,11,12,12,13,13,14,14,15,15,16,16,17,17,18,18,19,19,20,20,21,21,22,22,23,23,24,24,26,26,27,27,28,28,29,29,30,30,31,31,32,32,33,33,34,34,35,35,36,36,37,37,38,38,39,39,41,41,42,42,44,44,45,45,46,46,47,47,48,48,49,49,50,50,53,53,54,54,56,56,58,58,59,59,60,60],"right_children":[2,4,6,8,10,12,14,16,18,20,22,24,26,28,30,32,34,36,38,40,42,44,46,48,50,-1,52,54,56,58,60,62,64,66,68,70,72,74,76,78,-1,80,82,-1,84,86,88,90,92,94,96,-1,-1,98,100,-1,102,-1,104,106,108,-1,-1,-1,-1,-1,-1,-1,-1,-1,-1,-1,-1,-1,-1,-1,-1,-1,-1,-1,-1,-1,-1,-1,-1,-1,-1,-1,-1,-1,-1,-1,-1,-1,-1,-1,-1,-1,-1,-1,-1,-1,-1,-1,-1,-1,-1,-1,-1],"split_conditions":[-4.6979925E-1,1.3338817E0,1.0028465E0,2.0904142E-1,-1.4462142E0,1.999621E0,3.9030468E-1,-7.0923495E-1,-1.4773604E-1,1.5397699E0,-1.2425826E0,-2.7983737E-1,1.9444551E0,3.9989573E-1,1.826364E0,1.9185974E-1,-1.02275886E-1,-1.339535E0,2.542953E-1,3.6566576E-1,-1.6046761E0,-1.2663234E0,-7.9072976E-1,2.1432889E0,-5.5656206E-2,-6.17651E-2,-1.0200925E0,-2.773815E-1,-7.176741E-1,-4.8943663E-1,-8.2895154E-4,1.4091692E0,1.4173204E0,-1.2864338E-1,-1.7267609E0,1.9861393E-1,5.0067216E-1,-6.407509E-1,3.376475E-2,-6.113377E-1,1.0046581E-1,1.2199123E0,-1.2422607E0,-4.7725167E-2,1.5050207E0,-1.7846327E0,-1.50212E-3,-9.553303E-1,-4.998266E-1,1.4144025E0,1.5074292E0,3.782047E-2,1.20795526E-1,-5.9485644E-1,3.028166E-1,1.19490005E-1,-9.506702E-2,1.0545424E-1,-1.3380159E0,1.2289213E0,-1.0018786E0,-7.374507E-2,1.3996604E-3,-5.4617863E-2,7.938261E-2,-1.1381373E-2,7.0390634E-2,1.1942672E-1,-3.5449084E-2,1.1484231E-1,-5.4315146E-2,3.1962138E-2,-3.036811E-2,-5.2660644E-2,2.5688843E-3,5.3126242E-2,-4.295673E-2,-4.202907E-2,2.617718E-3,-6.577569E-4,7.733692E-2,-6.913414E-2,-1.2322407E-2,1.1603784E-1,2.6416862E-2,1.2665566E-3,-7.165659E-2,9.9227026E-2,1.3566896E-2,1.5873073E-3,7.167178E-2,-6.445509E-2,4.6290956E-2,-5.4855343E-2,2.8143778E-2,1.9290572E-2,-1.1830988E-2,5.683161E-2,-3.705704E-2,1.09198324E-1,-9.232169E-3,-4.249091E-2,8.257161E-3,5.866536E-2,-4.6439E-2,1.1182163E-1,-4.2566996E-2,4.7995977E-2,-5.310392E-2],"split_indices":[0,22,7,3,3,0,16,17,17,22,24,23,23,24,25,19,16,25,18,6,25,17,23,21,24,0,20,0,19,23,6,5,20,17,15,20,7,19,20,0,0,5,15,0,7,8,7,20,25,17,23,0,0,16,19,0,12,0,20,20,5,0,0,0,0,0,0,0,0,0,0,0,0,0,0,0,0,0,0,0,0,0,0,0,0,0,0,0,0,0,0,0,0,0,0,0,0,0,0,0,0,0,0,0,0,0,0,0,0],"split_type":[0,0,0,0,0,0,0,0,0,0,0,0,0,0,0,0,0,0,0,0,0,0,0,0,0,0,0,0,0,0,0,0,0,0,0,0,0,0,0,0,0,0,0,0,0,0,0,0,0,0,0,0,0,0,0,0,0,0,0,0,0,0,0,0,0,0,0,0,0,0,0,0,0,0,0,0,0,0,0,0,0,0,0,0,0,0,0,0,0,0,0,0,0,0,0,0,0,0,0,0,0,0,0,0,0,0,0,0,0],"sum_hessian":[3.439236E3,1.3916034E3,2.0476327E3,1.2093271E3,1.8227626E2,1.4835116E3,5.6412103E2,8.0819257E2,4.011346E2,4.7977314E1,1.3429895E2,1.4404377E3,4.3073845E1,2.9714462E2,2.669764E2,1.0170167E2,7.064909E2,1.3668686E2,2.6444775E2,4.9316115E0,4.30457E1,3.6315643E1,9.798331E1,2.546981E2,1.1857397E3,5.1697545E0,3.790409E1,1.1486372E2,1.8228091E2,2.4247676E2,2.4499666E1,5.757386E1,4.412781E1,1.9824413E2,5.0824677E2,2.4305498E1,1.12381355E2,1.2312811E2,1.4131964E2,2.5965173E0,2.335094E0,2.814926E0,4.0230774E1,1.7684091E0,3.4547234E1,2.076792E1,7.721539E1,2.3315854E2,2.1539553E1,8.096052E1,1.1047792E3,1.4229159E0,3.6481174E1,4.162337E1,7.324035E1,5.150335E0,1.7713058E2,2.806152E0,2.3967061E2,1.5006262E1,9.493403E0,5.4901463E1,2.6723967E0,3.7332462E1,6.79535E0,1.5096092E2,4.7283203E1,8.832999E0,4.994138E2,2.1381414E1,2.9240847E0,7.27271E1,3.9654255E1,9.2414246E1,3.071387E1,7.7133804E1,6.418584E1,1.2904593E0,1.3060582E0,1.355861E0,1.4590651E0,3.6717552E1,3.5132232E0,2.8739893E1,5.807342E0,1.3329107E0,1.9435009E1,2.6877943E1,5.0337444E1,4.8075813E1,1.8508273E2,1.9349817E1,2.1897364E0,6.704518E1,1.3915338E1,8.7594446E2,2.2883469E2,4.9935565E0,3.6629814E1,4.8072845E1,2.5167507E1,9.931648E1,7.78141E1,5.5715384E0,2.3409908E2,1.3703212E1,1.3030503E0,2.83293E0,6.6604733E0],"tree_param":{"num_deleted":"0","num_feature":"28","num_nodes":"109","size_leaf_vector":"1"}},{"base_weights":[1.3271797E-2,-7.426432E-2,2.2758476E-1,4.0972546E-2,-1.4896953E-1,4.0424967E-1,4.5753922E-2,1.2369007E0,1.7988069E-2,-1.7856114E-1,8.019411E-2,6.1742306E-1,2.8522664E-1,3.4680286E-1,-5.4877285E-2,1.2918743E-1,3.388171E-2,4.387293E-2,-4.4302565E-1,-3.0730358E-1,-1.19495116E-1,5.487274E-1,-1.6325034E-1,2.9064548E-1,8.8431394E-1,1.1432776E-1,6.195902E-1,-4.308473E-1,4.2562795E-1,-1.1300162E-1,3.478732E-1,-1.6352965E-2,4.309978E-1,-5.080258E-1,6.599182E-2,-3.693347E-1,-9.176876E-2,-6.1000907E-3,-2.815116E-1,8.148573E-1,-2.4830973E-1,8.8203347E-1,-2.6492012E-1,-2.2149704E-1,4.606962E-1,-3.0226946E-1,9.530694E-1,2.7756068E-1,-2.9638252E-1,7.363499E-1,-1.0955764E-1,8.122761E-2,-6.642723E-2,5.3990424E-1,-2.4942362E-1,-4.418245E-2,-5.06181E-1,1.1363232E0,1.0719904E-2,1.509848E-2,-1.4795506E-2,2.8433744E-2,9.9217504E-2,-1.628021E-2,-6.1751336E-2,-2.7559567E-2,-4.803316E-2,3.4161326E-2,-2.5430178E-2,-9.164694E-3,3.5942994E-2,-5.585159E-2,-2.060032E-2,-4.3761197E-2,8.654576E-2,4.2687815E-2,-3.8921524E-2,1.1427232E-1,-4.476022E-2,1.4620203E-2,-3.7521303E-2,-5.1205147E-2,4.551905E-2,2.7410746E-2,1.0046319E-1,-5.779467E-2,4.03639E-2,9.850877E-2,-2.3448732E-2,4.2511406E-3,9.369143E-2,5.4683883E-2,-4.1030336E-2,1.557492E-2,8.632647E-2,3.9444912E-2,-6.560067E-2,-1.05894115E-2,6.208982E-2,-4.8745736E-2,7.328735E-2,1.5342434E-2,-1.7386068E-2,4.8246305E-2,-5.756529E-2,3.499146E-2,1.2587099E-1,-3.6966745E-2,7.45364E-2],"categories":[],"categories_nodes":[],"categories_segments":[],"categories_sizes":[],"default_left":[0,0,0,0,0,0,0,0,0,0,0,0,0,0,0,0,0,0,0,0,0,0,0,0,0,0,0,0,0,0,0,0,0,0,0,0,0,0,0,0,0,0,0,0,0,0,0,0,0,0,0,0,0,0,0,0,0,0,0,0,0,0,0,0,0,0,0,0,0,0,0,0,0,0,0,0,0,0,0,0,0,0,0,0,0,0,0,0,0,0,0,0,0,0,0,0,0,0,0,0,0,0,0,0,0,0,0,0,0],"id":7,"left_children":[1,3,5,7,9,11,13,15,17,19,21,23,25,27,29,-1,-1,31,33,35,37,39,41,43,45,47,49,51,53,55,57,59,61,63,-1,65,67,69,71,73,75,77,79,81,83,85,87,89,91,93,95,-1,-1,97,99,101,103,105,107,-1,-1,-1,-1,-1,-1,-1,-1,-1,-1,-1,-1,-1,-1,-1,-1,-1,-1,-1,-1,-1,-1,-1,-1,-1,-1,-1,-1,-1,-1,-1,-1,-1,-1,-1,-1,-1,-1,-1,-1,-1,-1,-1,-1,-1,-1,-1,-1,-1,-1],"loss_changes":[6.476428E1,2.1107975E1,3.2140945E1,2.6499447E1,1.0100487E1,1.2704285E1,1.499925E1,4.5981026E-1,1.1328303E1,9.982414E0,1.9569626E1,1.5531158E1,1.8650297E1,7.785386E0,8.735115E0,0E0,0E0,2.094862E1,3.9536095E0,5.497738E0,1.6621555E1,1.2637669E1,1.2259573E1,7.3194656E0,8.377563E0,1.469961E1,9.495598E0,3.9957793E0,8.859915E0,8.781588E0,1.2506521E1,1.7160828E1,9.67318E0,1.7223463E0,0E0,3.2069626E0,6.69361E0,1.670928E1,7.676626E0,3.1788998E0,1.6352077E0,4.068464E0,4.7659864E0,4.4274807E0,6.0719357E0,1.43787E0,3.8038712E0,2.422092E1,6.2275677E0,6.8991966E0,4.7025213E0,0E0,0E0,5.1418495E0,4.345998E0,7.1504707E0,3.6000214E0,9.1627693E-1,9.775922E0,0E0,0E0,0E0,0E0,0E0,0E0,0E0,0E0,0E0,0E0,0E0,0E0,0E0,0E0,0E0,0E0,0E0,0E0,0E0,0E0,0E0,0E0,0E0,0E0,0E0,0E0,0E0,0E0,0E0,0E0,0E0,0E0,0E0,0E0,0E0,0E0,0E0,0E0,0E0,0E0,0E0,0E0,0E0,0E0,0E0,0E0,0E0,0E0,0E0,0E0],"parents":[2147483647,0,0,1,1,2,2,3,3,4,4,5,5,6,6,7,7,8,8,9,9,10,10,11,11,12,12,13,13,14,14,17,17,18,18,19,19,20,20,21,21,22,22,23,23,24,24,25,25,26,26,27,27,28,28,29,29,30,30,31,31,32,32,33,33,35,35,36,36,37,37,38,38,39,39,40,40,41,41,42,42,43,43,44,44,45,45,46,46,47,47,48,48,49,49,50,50,53,53,54,54,55,55,56,56,57,57,58,58],"right_children":[2,4,6,8,10,12,14,16,18,20,22,24,26,28,30,-1,-1,32,34,36,38,40,42,44,46,48,50,52,54,56,58,60,62,64,-1,66,68,70,72,74,76,78,80,82,84,86,88,90,92,94,96,-1,-1,98,100,102,104,106,108,-1,-1,-1,-1,-1,-1,-1,-1,-1,-1,-1,-1,-1,-1,-1,-1,-1,-1,-1,-1,-1,-1,-1,-1,-1,-1,-1,-1,-1,-1,-1,-1,-1,-1,-1,-1,-1,-1,-1,-1,-1,-1,-1,-1,-1,-1,-1,-1,-1,-1],"split_conditions":[1.0028465E0,-3.393094E-1,1.5050207E0,-1.7941968E0,1.758616E0,-3.4872943E-1,-9.398405E-1,2.7550864E-1,1.3243197E0,-6.341806E-1,-7.418829E-1,4.20358E-2,8.456473E-1,-1.4691508E0,1.2155653E0,1.2918743E-1,3.388171E-2,9.273122E-1,-3.8662666E-1,1.6185825E-1,5.250921E-1,1.4581059E0,-1.5027961E-1,-1.355572E-1,-1.5306503E0,7.004507E-1,9.310569E-1,3.9030468E-1,6.679386E-1,3.0358854E-1,-6.020821E-1,-2.6371032E-1,8.828853E-1,-1.0058507E0,6.599182E-2,3.6566576E-1,4.9048576E-1,2.3982623E-1,9.11043E-2,-1.4136207E0,-5.86156E-1,1.685244E0,-5.695891E-1,-9.4002314E-2,-2.0699497E-1,1.0200752E0,1.8253863E0,-3.6848895E-2,-9.1821486E-1,-1.244197E0,1.7838196E0,8.122761E-2,-6.642723E-2,-1.3378798E0,2.3555305E0,-5.700554E-1,-1.4695477E0,-1.3910031E0,7.1671134E-1,1.509848E-2,-1.4795506E-2,2.8433744E-2,9.9217504E-2,-1.628021E-2,-6.1751336E-2,-2.7559567E-2,-4.803316E-2,3.4161326E-2,-2.5430178E-2,-9.164694E-3,3.5942994E-2,-5.585159E-2,-2.060032E-2,-4.3761197E-2,8.654576E-2,4.2687815E-2,-3.8921524E-2,1.1427232E-1,-4.476022E-2,1.4620203E-2,-3.7521303E-2,-5.1205147E-2,4.551905E-2,2.7410746E-2,1.0046319E-1,-5.779467E-2,4.03639E-2,9.850877E-2,-2.3448732E-2,4.2511406E-3,9.369143E-2,5.4683883E-2,-4.1030336E-2,1.557492E-2,8.632647E-2,3.9444912E-2,-6.560067E-2,-1.05894115E-2,6.208982E-2,-4.8745736E-2,7.328735E-2,1.5342434E-2,-1.7386068E-2,4.8246305E-2,-5.756529E-2,3.499146E-2,1.2587099E-1,-3.6966745E-2,7.45364E-2],"split_indices":[7,19,7,23,25,19,22,10,26,18,2,18,0,19,0,0,0,26,19,21,18,27,26,10,22,26,22,16,27,17,20,26,16,7,0,6,21,20,19,21,9,0,18,4,26,4,2,26,27,22,25,0,0,13,4,27,27,20,20,0,0,0,0,0,0,0,0,0,0,0,0,0,0,0,0,0,0,0,0,0,0,0,0,0,0,0,0,0,0,0,0,0,0,0,0,0,0,0,0,0,0,0,0,0,0,0,0,0,0],"split_type":[0,0,0,0,0,0,0,0,0,0,0,0,0,0,0,0,0,0,0,0,0,0,0,0,0,0,0,0,0,0,0,0,0,0,0,0,0,0,0,0,0,0,0,0,0,0,0,0,0,0,0,0,0,0,0,0,0,0,0,0,0,0,0,0,0,0,0,0,0,0,0,0,0,0,0,0,0,0,0,0,0,0,0,0,0,0,0,0,0,0,0,0,0,0,0,0,0,0,0,0,0,0,0,0,0,0,0,0,0],"sum_hessian":[3.45033E3,2.4501997E3,1.0001304E3,9.63854E2,1.4863457E3,5.0665073E2,4.9347964E2,1.7179052E1,9.466749E2,1.3165607E3,1.6978499E2,1.8002812E2,3.2662262E2,1.2301649E2,3.7046317E2,1.5774955E1,1.404097E0,8.9720386E2,4.9471104E1,4.127384E2,9.0382227E2,5.76253E1,1.1215969E2,8.187297E1,9.815514E1,2.170345E2,1.095881E2,1.0910722E1,1.1210577E2,3.2437E2,4.6093155E1,7.7724396E2,1.1995986E2,4.7227234E1,2.243869E0,3.1994452E2,9.27939E1,5.323025E2,3.715198E2,4.3183884E1,1.4441416E1,9.2618265E0,1.0289786E2,2.0333109E1,6.1539864E1,5.1899805E0,9.2965164E1,1.5554057E2,6.1493942E1,9.445326E1,1.5134835E1,1.3328277E0,9.577894E0,9.604668E1,1.6059086E1,2.769986E2,4.7371387E1,1.3096346E1,3.299681E1,3.4210077E2,4.3514322E2,9.629929E1,2.366057E1,1.1970415E1,3.5256817E1,1.753451E2,1.4459943E2,2.5008587E1,6.778531E1,4.3195834E2,1.0034413E2,7.820953E1,2.9331027E2,1.3798982E0,4.1803986E1,2.1430173E0,1.2298399E1,7.861138E0,1.4006885E0,2.169672E1,8.120114E1,1.4395361E1,5.9377475E0,4.6941307E1,1.45985565E1,3.862743E0,1.3272378E0,9.0690506E1,2.2746568E0,1.15449196E2,4.0091366E1,6.8668203E0,5.462712E1,1.7342642E1,7.711063E1,8.017869E0,7.1169667E0,1.0669213E1,8.5377464E1,1.333215E1,2.7269363E0,1.0968098E2,1.6731763E2,2.7199183E0,4.465147E1,2.2833745E0,1.0812971E1,2.2067438E1,1.0929372E1],"tree_param":{"num_deleted":"0","num_feature":"28","num_nodes":"109","size_leaf_vector":"1"}},{"base_weights":[-1.3298175E-2,1.1820781E-2,-4.6346968E-1,7.943879E-1,1.412754E-3,-5.193163E-1,9.072267E-1,9.312828E-1,-1.5359354E-1,6.620237E-1,-7.1825744E-3,9.470132E-2,-5.39844E-1,1.1007966E-1,-1.4170917E-4,1.0792525E0,-2.2486532E-1,3.8769413E-2,-5.5331793E-2,9.676825E-1,-8.850333E-2,-1.2800724E-2,1.0303869E0,-2.5368255E-1,-6.1695486E-1,-1.6944255E-1,1.23665385E-1,-5.591471E-2,3.9170694E-2,1.0497566E0,-4.400989E-2,7.157515E-1,-5.5469394E-1,-7.329676E-2,5.5612933E-2,1.1812977E-1,-4.3301012E-2,1.8416262E-1,-6.861555E-2,-1.9824654E-1,-6.6863984E-1,4.0579863E-2,-5.309372E-2,4.0369272E-2,1.0896629E-1,-2.3982292E-3,9.880507E-2,-2.9260942E-3,-6.489015E-2,-4.0227817E-3,-5.0083954E-2,4.3072347E-2,-1.7956715E-3,-5.663308E-2,9.0908E-2,-5.7230573E-2,4.427494E-2,3.7839585E-3,-6.843732E-2],"categories":[],"categories_nodes":[],"categories_segments":[],"categories_sizes":[],"default_left":[0,0,0,0,0,0,0,0,0,0,0,0,0,0,0,0,0,0,0,0,0,0,0,0,0,0,0,0,0,0,0,0,0,0,0,0,0,0,0,0,0,0,0,0,0,0,0,0,0,0,0,0,0,0,0,0,0,0,0],"id":8,"left_children":[1,3,5,7,9,11,13,15,17,19,21,-1,23,-1,-1,25,27,-1,-1,29,31,33,35,37,39,41,-1,-1,-1,43,-1,45,47,49,51,-1,-1,53,-1,55,57,-1,-1,-1,-1,-1,-1,-1,-1,-1,-1,-1,-1,-1,-1,-1,-1,-1,-1],"loss_changes":[3.89487E1,2.6574959E1,1.4405666E1,5.700533E0,1.8294441E1,5.7951813E0,1.3190122E0,6.6686363E0,1.5694482E0,9.578928E0,1.8554031E1,0E0,3.6776543E0,0E0,0E0,6.7884865E0,1.2680151E0,0E0,0E0,3.8693428E0,5.2307544E0,1.3101292E1,4.2971897E0,7.4319906E0,2.8144226E0,1.1775188E0,0E0,0E0,0E0,2.861538E-1,0E0,1.064558E0,4.128859E-1,2.3730637E1,4.1006886E1,0E0,0E0,1.1374004E1,0E0,4.1817765E0,1.3685341E0,0E0,0E0,0E0,0E0,0E0,0E0,0E0,0E0,0E0,0E0,0E0,0E0,0E0,0E0,0E0,0E0,0E0,0E0],"parents":[2147483647,0,0,1,1,2,2,3,3,4,4,5,5,6,6,7,7,8,8,9,9,10,10,12,12,15,15,16,16,19,19,20,20,21,21,22,22,23,23,24,24,25,25,29,29,31,31,32,32,33,33,34,34,37,37,39,39,40,40],"right_children":[2,4,6,8,10,12,14,16,18,20,22,-1,24,-1,-1,26,28,-1,-1,30,32,34,36,38,40,42,-1,-1,-1,44,-1,46,48,50,52,-1,-1,54,-1,56,58,-1,-1,-1,-1,-1,-1,-1,-1,-1,-1,-1,-1,-1,-1,-1,-1,-1,-1],"split_conditions":[1.8091772E0,-2.6577888E0,1.9198879E0,1.2481886E0,-1.8007848E0,-1.3923653E0,1.8589705E0,-1.0863296E0,1.0165324E0,-1.7514398E0,3.061513E0,9.470132E-2,3.8803482E-1,1.1007966E-1,-1.4170917E-4,-5.623568E-1,1.3610076E0,3.8769413E-2,-5.5331793E-2,2.6357365E-1,-1.8502878E0,1.716062E-1,-2.4053179E-1,1.9315416E0,-1.2964363E0,1.7036863E-1,1.23665385E-1,-5.591471E-2,3.9170694E-2,-9.013484E-1,-4.400989E-2,1.9572756E-1,-7.755998E-1,4.6970284E-1,3.0961445E-1,1.1812977E-1,-4.3301012E-2,-6.347371E-1,-6.861555E-2,-1.0027951E0,-1.0920297E0,4.0579863E-2,-5.309372E-2,4.0369272E-2,1.0896629E-1,-2.3982292E-3,9.880507E-2,-2.9260942E-3,-6.489015E-2,-4.0227817E-3,-5.0083954E-2,4.3072347E-2,-1.7956715E-3,-5.663308E-2,9.0908E-2,-5.7230573E-2,4.427494E-2,3.7839585E-3,-6.843732E-2],"split_indices":[25,4,27,23,0,18,0,15,0,24,21,0,27,0,0,23,5,0,0,19,0,27,0,25,4,8,0,0,0,21,0,12,8,25,27,0,0,3,0,15,17,0,0,0,0,0,0,0,0,0,0,0,0,0,0,0,0,0,0],"split_type":[0,0,0,0,0,0,0,0,0,0,0,0,0,0,0,0,0,0,0,0,0,0,0,0,0,0,0,0,0,0,0,0,0,0,0,0,0,0,0,0,0,0,0,0,0,0,0,0,0,0,0,0,0,0,0,0,0,0,0],"sum_hessian":[3.4429136E3,3.261879E3,1.8103465E2,4.1824444E1,3.2200544E3,1.7454428E2,6.490374E0,3.6562225E1,5.2622166E0,4.0382164E1,3.1796724E3,1.7866547E0,1.7275763E2,5.1762066E0,1.3141677E0,3.2472717E1,4.089511E0,2.248076E0,3.0141408E0,2.8490015E1,1.1892148E1,3.1635303E3,1.6141975E1,3.75814E1,1.3517622E2,3.6265008E0,2.8846214E1,2.7121978E0,1.3773133E0,2.7160847E1,1.3291672E0,4.1673937E0,7.7247543E0,1.6788792E3,1.4846512E3,1.4807719E1,1.3342556E0,1.8960022E1,1.862138E1,1.5383956E1,1.1979227E2,1.3522027E0,2.2742982E0,2.2267559E0,2.4934092E1,1.3666499E0,2.800744E0,1.373698E0,6.351056E0,1.5593619E3,1.1951715E2,2.426408E2,1.2420105E3,9.423162E0,9.536859E0,9.782467E0,5.6014895E0,2.5790603E0,1.1721321E2],"tree_param":{"num_deleted":"0","num_feature":"28","num_nodes":"59","size_leaf_vector":"1"}},{"base_weights":[-4.6456875E-3,4.8054144E-2,-2.0766991E-1,-1.1319082E-2,2.6791793E-1,-2.3739529E-1,6.853232E-1,3.9565723E-2,-1.7105258E-1,1.1331097E-1,5.2655125E-1,-2.5991565E-1,6.2623936E-1,9.044303E-1,-2.1779808E-1,-1.2407798E-2,3.151879E-1,-4.5420164E-1,-2.913538E-2,3.4307033E-1,-2.0582178E-1,5.8070755E-1,-2.409674E-1,-2.9940856E-1,2.6285318E-1,9.011032E-1,-5.4647226E-2,-2.657738E-3,9.804013E-1,-5.4074492E-2,3.9543316E-2,-2.2413837E-2,1.0995445E0,-6.2484956E-1,3.6992815E-1,-6.429729E-1,-2.8552297E-1,7.194834E-2,-4.5188504E-1,5.017901E-1,-5.7226485E-1,-6.301385E-1,-7.2900048E-3,2.9920915E-1,8.2513154E-1,-6.363889E-2,2.1248496E-1,7.930062E-1,-3.1878838E-1,5.6459016E-1,-5.8654654E-1,1.1152183E-1,-2.3149857E-2,3.4615345E-2,1.0579311E0,5.2144873E-4,-5.7777893E-2,3.978153E-2,1.153664E-1,-6.8974495E-2,1.106665E-3,3.049607E-2,1.0849255E-1,4.9405126E-3,-6.547447E-2,9.461644E-2,-4.3071907E-2,-4.325601E-2,2.3520833E-2,-6.579155E-2,1.2602026E-2,1.1610122E-2,7.62169E-2,-6.326094E-2,4.6257254E-2,1.0842705E-2,-6.683081E-2,8.387398E-2,-9.304705E-3,6.837855E-2,-4.9175224E-3,1.06342725E-1,9.913833E-3,-6.1064225E-2,8.0595426E-2,-5.3627472E-2,1.269067E-1,-1.1294569E-2,-3.9451983E-2,9.8845385E-2,-4.1104727E-3,-6.6127986E-2,6.122249E-3,3.9233454E-2,-4.4199165E-2,1.10206805E-1,3.739777E-2],"categories":[],"categories_nodes":[],"categories_segments":[],"categories_sizes":[],"default_left":[0,0,0,0,0,0,0,0,0,0,0,0,0,0,0,0,0,0,0,0,0,0,0,0,0,0,0,0,0,0,0,0,0,0,0,0,0,0,0,0,0,0,0,0,0,0,0,0,0,0,0,0,0,0,0,0,0,0,0,0,0,0,0,0,0,0,0,0,0,0,0,0,0,0,0,0,0,0,0,0,0,0,0,0,0,0,0,0,0,0,0,0,0,0,0,0,0],"id":9,"left_children":[1,3,5,7,9,11,13,15,17,19,21,23,25,27,29,31,33,35,37,39,41,43,45,47,49,51,-1,-1,53,-1,-1,55,57,59,61,63,65,67,69,71,73,75,77,79,81,-1,83,85,87,89,91,-1,93,-1,95,-1,-1,-1,-1,-1,-1,-1,-1,-1,-1,-1,-1,-1,-1,-1,-1,-1,-1,-1,-1,-1,-1,-1,-1,-1,-1,-1,-1,-1,-1,-1,-1,-1,-1,-1,-1,-1,-1,-1,-1,-1,-1],"loss_changes":[3.657619E1,3.543322E1,1.886313E1,1.738433E1,2.3017948E1,1.3437733E1,4.7388315E0,2.3242964E1,2.0750477E1,2.664927E1,9.10368E0,1.3826668E1,6.1781397E0,1.3462439E0,1.2609189E0,1.52214575E1,1.3477058E1,5.307476E0,1.4786989E1,3.0960142E1,1.2829944E1,1.3633202E1,2.8104916E0,1.3370136E1,1.2455202E1,2.9284248E0,0E0,0E0,4.83675E-1,0E0,0E0,2.0788538E1,4.421234E-3,6.0753345E-1,1.0997562E1,6.891136E-1,1.7016048E1,2.3123585E1,8.032228E0,1.8034317E1,2.2701206E0,1.4411602E0,7.681933E0,1.280517E1,1.8476082E1,0E0,4.253513E0,7.696618E0,9.456932E0,9.132766E0,6.6449356E-1,0E0,8.2397825E-1,0E0,3.8085938E-2,0E0,0E0,0E0,0E0,0E0,0E0,0E0,0E0,0E0,0E0,0E0,0E0,0E0,0E0,0E0,0E0,0E0,0E0,0E0,0E0,0E0,0E0,0E0,0E0,0E0,0E0,0E0,0E0,0E0,0E0,0E0,0E0,0E0,0E0,0E0,0E0,0E0,0E0,0E0,0E0,0E0,0E0],"parents":[2147483647,0,0,1,1,2,2,3,3,4,4,5,5,6,6,7,7,8,8,9,9,10,10,11,11,12,12,13,13,14,14,15,15,16,16,17,17,18,18,19,19,20,20,21,21,22,22,23,23,24,24,25,25,28,28,31,31,32,32,33,33,34,34,35,35,36,36,37,37,38,38,39,39,40,40,41,41,42,42,43,43,44,44,46,46,47,47,48,48,49,49,50,50,52,52,54,54],"right_children":[2,4,6,8,10,12,14,16,18,20,22,24,26,28,30,32,34,36,38,40,42,44,46,48,50,52,-1,-1,54,-1,-1,56,58,60,62,64,66,68,70,72,74,76,78,80,82,-1,84,86,88,90,92,-1,94,-1,96,-1,-1,-1,-1,-1,-1,-1,-1,-1,-1,-1,-1,-1,-1,-1,-1,-1,-1,-1,-1,-1,-1,-1,-1,-1,-1,-1,-1,-1,-1,-1,-1,-1,-1,-1,-1,-1,-1,-1,-1,-1,-1],"split_conditions":[9.273122E-1,3.546781E-1,1.9444551E0,7.658182E-2,4.0013108E-1,1.8091772E0,8.064898E-2,6.483115E-1,-5.728224E-1,3.0344325E-1,1.8874382E0,2.2317653E0,1.8875321E0,-2.9888287E-1,-1.5156552E-1,1.8216324E0,-2.5802972E0,5.125425E-1,6.919379E-1,9.0127707E-1,-1.6676927E-1,1.0756419E0,-1.3768091E0,-1.7362698E0,1.0028465E0,1.8755856E0,-5.4647226E-2,-2.657738E-3,-7.125352E-1,-5.4074492E-2,3.9543316E-2,1.5466074E0,-3.06672E-1,1.3610076E0,1.5014976E0,-1.4686489E0,1.5219274E-1,-5.665436E-1,1.6650876E0,-4.7339544E-1,9.681507E-1,-1.4693099E0,-1.4769403E0,3.7694782E-1,5.0067216E-1,-6.363889E-2,-3.6732367E-1,-1.5669445E0,-5.036764E-1,3.6566576E-1,1.6122361E0,1.1152183E-1,-4.533229E-2,3.4615345E-2,1.4334506E0,5.2144873E-4,-5.7777893E-2,3.978153E-2,1.153664E-1,-6.8974495E-2,1.106665E-3,3.049607E-2,1.0849255E-1,4.9405126E-3,-6.547447E-2,9.461644E-2,-4.3071907E-2,-4.325601E-2,2.3520833E-2,-6.579155E-2,1.2602026E-2,1.1610122E-2,7.62169E-2,-6.326094E-2,4.6257254E-2,1.0842705E-2,-6.683081E-2,8.387398E-2,-9.304705E-3,6.837855E-2,-4.9175224E-3,1.06342725E-1,9.913833E-3,-6.1064225E-2,8.0595426E-2,-5.3627472E-2,1.269067E-1,-1.1294569E-2,-3.9451983E-2,9.8845385E-2,-4.1104727E-3,-6.6127986E-2,6.122249E-3,3.9233454E-2,-4.4199165E-2,1.10206805E-1,3.739777E-2],"split_indices":[26,18,23,26,27,25,22,10,22,26,27,26,23,12,9,0,18,3,27,0,21,25,4,25,7,12,0,0,8,0,0,23,12,5,3,0,21,24,0,0,12,8,22,25,7,0,6,0,7,6,4,0,9,0,10,0,0,0,0,0,0,0,0,0,0,0,0,0,0,0,0,0,0,0,0,0,0,0,0,0,0,0,0,0,0,0,0,0,0,0,0,0,0,0,0,0,0],"split_type":[0,0,0,0,0,0,0,0,0,0,0,0,0,0,0,0,0,0,0,0,0,0,0,0,0,0,0,0,0,0,0,0,0,0,0,0,0,0,0,0,0,0,0,0,0,0,0,0,0,0,0,0,0,0,0,0,0,0,0,0,0,0,0,0,0,0,0,0,0,0,0,0,0,0,0,0,0,0,0,0,0,0,0,0,0,0,0,0,0,0,0,0,0,0,0,0,0],"sum_hessian":[3.416613E3,2.7131204E3,7.034925E2,2.1369856E3,5.761348E2,6.8154E2,2.1952501E1,1.6212662E3,5.1571936E2,3.6148367E2,2.1465117E2,6.6490094E2,1.663908E1,1.7665264E1,4.287237E0,1.3648535E3,2.5641272E2,1.7144893E2,3.4427042E2,2.1012752E2,1.5135616E2,2.0073094E2,1.3920231E1,6.1859595E2,4.6304974E1,1.3667302E1,2.9717784E0,1.3817968E0,1.6283466E1,2.885727E0,1.4015106E0,1.3536523E3,1.1201163E1,1.3536674E1,2.4287604E2,7.957894E1,9.1869995E1,2.785065E2,6.5763916E1,1.7946071E2,3.0666819E1,4.755153E1,1.0380463E2,9.4323975E1,1.0640697E2,7.22042E0,6.699811E0,1.0086984E1,6.08509E2,3.4414886E1,1.1890086E1,1.0928873E1,2.7384288E0,2.368911E0,1.3914556E1,1.2904458E3,6.3206543E1,1.3999302E0,9.801233E0,1.2206364E1,1.33031E0,2.2395328E2,1.8922747E1,1.2769437E0,7.8301994E1,9.106215E0,8.276378E1,6.768763E1,2.1081886E2,4.837808E1,1.7385836E1,7.290915E1,1.0655155E2,2.9344345E1,1.3224726E0,2.2462733E0,4.5305256E1,8.745558E0,9.505907E1,4.4375633E1,4.9948345E1,7.976168E1,2.6645285E1,2.7946978E0,3.9051132E0,2.626541E0,7.460443E0,1.6433302E2,4.4417593E2,1.9874695E1,1.4540192E1,1.0641514E1,1.2485721E0,1.4064951E0,1.3319337E0,1.2496791E1,1.4177649E0],"tree_param":{"num_deleted":"0","num_feature":"28","num_nodes":"97","size_leaf_vector":"1"}},{"base_weights":[7.190156E-4,-7.739096E-2,1.8897362E-1,3.0516783E-2,-1.5667857E-1,3.3508024E-1,3.819072E-2,1.9844183E-1,-7.545968E-2,-4.2691913E-1,-1.3022396E-1,4.114405E-1,3.6825174E-3,3.2893834E-1,-6.3487895E-2,-9.797881E-2,2.9859576E-1,-1.41361E-1,3.4244555E-1,-2.7644944E-1,-6.151801E-1,1.0528073E-1,-1.8473959E-1,7.8546274E-1,3.103178E-1,-2.3789449E-1,5.84329E-1,-4.2484334E-1,4.018103E-1,4.468115E-2,-2.757176E-1,-3.7009773E-1,4.386825E-1,3.8718617E-1,-6.413088E-2,1.1467218E-1,-1.5415514E-1,6.134341E-1,-4.766129E-1,-4.721762E-1,-2.1996757E-2,-6.459952E-1,-1.2412264E-1,-5.9394586E-1,1.6995198E-1,-2.2431266E-1,1.2307972E-2,-2.9535213E-1,8.53265E-1,7.1528345E-2,6.218423E-1,-4.978523E-1,7.124581E-2,7.941745E-1,-5.883747E-2,5.184437E-2,-6.499693E-2,6.0648805E-1,8.392624E-4,4.7474563E-1,-6.787627E-2,3.7031744E-2,-3.3481663E-1,-4.964149E-2,4.6095435E-2,-5.1713496E-2,7.017289E-2,2.1499623E-2,6.277162E-2,-3.7229758E-2,1.406262E-2,-1.6786013E-2,9.644042E-2,-1.7054325E-2,7.243656E-2,-5.543337E-2,4.2560045E-2,-3.313732E-3,-6.1880477E-2,5.470839E-2,-1.4437904E-2,-1.8718308E-2,-6.8240635E-2,-4.9163584E-2,4.3598734E-2,-6.8067886E-2,-1.7614085E-2,-5.9561323E-2,2.1133821E-2,-1.879034E-2,-5.9710134E-2,1.0013612E-1,-7.819993E-3,-5.8632758E-2,4.0414397E-2,8.851611E-2,-4.3483425E-2,2.607553E-2,-3.2359645E-2,3.607167E-2,7.470878E-2,8.040801E-2,-5.6831848E-2,-6.629362E-2,2.7984345E-2,-5.688254E-2,9.90047E-2,6.734459E-2,-2.2489797E-2,-2.8458698E-2,5.6439783E-2,-3.8281057E-2,6.6818945E-2,-1.31509425E-2,8.351391E-2,-3.373286E-2,6.6102E-2,-6.8041794E-2,-2.5344646E-2],"categories":[],"categories_nodes":[],"categories_segments":[],"categories_sizes":[],"default_left":[0,0,0,0,0,0,0,0,0,0,0,0,0,0,0,0,0,0,0,0,0,0,0,0,0,0,0,0,0,0,0,0,0,0,0,0,0,0,0,0,0,0,0,0,0,0,0,0,0,0,0,0,0,0,0,0,0,0,0,0,0,0,0,0,0,0,0,0,0,0,0,0,0,0,0,0,0,0,0,0,0,0,0,0,0,0,0,0,0,0,0,0,0,0,0,0,0,0,0,0,0,0,0,0,0,0,0,0,0,0,0,0,0,0,0,0,0,0,0],"id":10,"left_children":[1,3,5,7,9,11,13,15,17,19,21,23,25,27,29,31,33,35,37,39,41,43,45,47,49,51,53,55,57,59,61,63,65,67,69,-1,71,73,75,77,79,81,83,85,87,89,91,93,95,97,99,101,103,105,-1,-1,-1,107,109,111,113,115,117,-1,-1,-1,-1,-1,-1,-1,-1,-1,-1,-1,-1,-1,-1,-1,-1,-1,-1,-1,-1,-1,-1,-1,-1,-1,-1,-1,-1,-1,-1,-1,-1,-1,-1,-1,-1,-1,-1,-1,-1,-1,-1,-1,-1,-1,-1,-1,-1,-1,-1,-1,-1,-1,-1,-1,-1],"loss_changes":[5.0293873E1,2.0686718E1,2.2083244E1,1.8250711E1,9.907486E0,1.2885635E1,1.4646196E1,1.1807797E1,1.7370165E1,3.337492E0,1.6334715E1,1.5410187E1,1.3657968E1,7.2206364E0,8.446033E0,1.4904765E1,9.562159E0,9.141691E0,1.9372742E1,3.5074148E0,7.397804E-1,1.093153E1,8.052258E0,6.6591454E0,2.4314243E1,5.562191E0,7.506814E0,2.8428135E0,9.646381E0,1.1853538E1,2.3074188E0,7.3176193E0,9.017688E0,9.750431E0,3.782611E0,0E0,8.432669E0,5.7791443E0,1.7739425E0,2.5464907E0,2.2908397E0,7.2008514E-1,1.1277869E0,6.2294483E-1,7.0966525E0,1.1556358E1,1.5617531E1,1.4386172E0,3.7755623E0,1.4028317E1,4.3731575E0,3.8957129E0,5.130522E0,7.154669E0,0E0,0E0,0E0,4.483494E0,6.711487E0,8.679889E0,1.1281843E1,5.0432053E0,2.7671957E0,0E0,0E0,0E0,0E0,0E0,0E0,0E0,0E0,0E0,0E0,0E0,0E0,0E0,0E0,0E0,0E0,0E0,0E0,0E0,0E0,0E0,0E0,0E0,0E0,0E0,0E0,0E0,0E0,0E0,0E0,0E0,0E0,0E0,0E0,0E0,0E0,0E0,0E0,0E0,0E0,0E0,0E0,0E0,0E0,0E0,0E0,0E0,0E0,0E0,0E0,0E0,0E0,0E0,0E0,0E0,0E0],"parents":[2147483647,0,0,1,1,2,2,3,3,4,4,5,5,6,6,7,7,8,8,9,9,10,10,11,11,12,12,13,13,14,14,15,15,16,16,17,17,18,18,19,19,20,20,21,21,22,22,23,23,24,24,25,25,26,26,27,27,28,28,29,29,30,30,31,31,32,32,33,33,34,34,36,36,37,37,38,38,39,39,40,40,41,41,42,42,43,43,44,44,45,45,46,46,47,47,48,48,49,49,50,50,51,51,52,52,53,53,57,57,58,58,59,59,60,60,61,61,62,62],"right_children":[2,4,6,8,10,12,14,16,18,20,22,24,26,28,30,32,34,36,38,40,42,44,46,48,50,52,54,56,58,60,62,64,66,68,70,-1,72,74,76,78,80,82,84,86,88,90,92,94,96,98,100,102,104,106,-1,-1,-1,108,110,112,114,116,118,-1,-1,-1,-1,-1,-1,-1,-1,-1,-1,-1,-1,-1,-1,-1,-1,-1,-1,-1,-1,-1,-1,-1,-1,-1,-1,-1,-1,-1,-1,-1,-1,-1,-1,-1,-1,-1,-1,-1,-1,-1,-1,-1,-1,-1,-1,-1,-1,-1,-1,-1,-1,-1,-1,-1,-1],"split_conditions":[1.0028465E0,-2.4354614E-1,1.5050207E0,-2.6371032E-1,-4.090136E-1,9.847669E-1,-9.398405E-1,-4.4656098E-1,8.828853E-1,-5.014101E-1,2.0550466E-1,-9.3941414E-1,-9.356425E-2,-1.4691508E0,-4.6764758E-1,-5.9163105E-1,1.2199123E0,-1.731219E0,-1.3367726E-1,-6.609739E-1,2.1754684E0,-1.2803118E-1,1.7438929E0,-1.7794741E0,3.8664335E-1,-3.334537E-1,1.7838196E0,3.9030468E-1,7.490146E-1,-3.4786984E-1,-3.7911277E-2,1.3610076E0,-5.472871E-1,-1.50212E-3,-1.7147166E-1,1.1467218E-1,1.170282E0,-4.5014778E-1,7.6459825E-1,-1.8121694E0,-4.04992E-1,-1.7902484E0,2.2414E0,5.231179E-1,-7.587811E-1,1.3868219E0,-5.9485644E-1,-1.4841304E0,6.1774874E-1,8.1388146E-1,-4.9132442E-1,-1.8857068E0,-6.5911347E-1,-6.9214076E-1,-5.883747E-2,5.184437E-2,-6.499693E-2,2.8532076E0,7.2399504E-2,-7.848753E-1,5.027462E-1,-3.0983585E-1,-1.0406935E0,-4.964149E-2,4.6095435E-2,-5.1713496E-2,7.017289E-2,2.1499623E-2,6.277162E-2,-3.7229758E-2,1.406262E-2,-1.6786013E-2,9.644042E-2,-1.7054325E-2,7.243656E-2,-5.543337E-2,4.2560045E-2,-3.313732E-3,-6.1880477E-2,5.470839E-2,-1.4437904E-2,-1.8718308E-2,-6.8240635E-2,-4.9163584E-2,4.3598734E-2,-6.8067886E-2,-1.7614085E-2,-5.9561323E-2,2.1133821E-2,-1.879034E-2,-5.9710134E-2,1.0013612E-1,-7.819993E-3,-5.8632758E-2,4.0414397E-2,8.851611E-2,-4.3483425E-2,2.607553E-2,-3.2359645E-2,3.607167E-2,7.470878E-2,8.040801E-2,-5.6831848E-2,-6.629362E-2,2.7984345E-2,-5.688254E-2,9.90047E-2,6.734459E-2,-2.2489797E-2,-2.8458698E-2,5.6439783E-2,-3.8281057E-2,6.6818945E-2,-1.31509425E-2,8.351391E-2,-3.373286E-2,6.6102E-2,-6.8041794E-2,-2.5344646E-2],"split_indices":[7,19,7,26,27,22,22,18,16,0,27,19,26,19,12,25,5,19,24,0,2,19,25,0,25,2,25,16,24,3,19,5,26,7,3,0,18,2,4,24,17,22,3,13,0,24,16,12,22,26,14,18,19,0,0,0,0,16,12,17,4,11,3,0,0,0,0,0,0,0,0,0,0,0,0,0,0,0,0,0,0,0,0,0,0,0,0,0,0,0,0,0,0,0,0,0,0,0,0,0,0,0,0,0,0,0,0,0,0,0,0,0,0,0,0,0,0,0,0],"split_type":[0,0,0,0,0,0,0,0,0,0,0,0,0,0,0,0,0,0,0,0,0,0,0,0,0,0,0,0,0,0,0,0,0,0,0,0,0,0,0,0,0,0,0,0,0,0,0,0,0,0,0,0,0,0,0,0,0,0,0,0,0,0,0,0,0,0,0,0,0,0,0,0,0,0,0,0,0,0,0,0,0,0,0,0,0,0,0,0,0,0,0,0,0,0,0,0,0,0,0,0,0,0,0,0,0,0,0,0,0,0,0,0,0,0,0,0,0,0,0],"sum_hessian":[3.4182957E3,2.4163152E3,1.0019805E3,1.023704E3,1.3926112E3,5.082606E2,4.9371994E2,3.9574832E2,6.279556E2,1.2282142E2,1.2697898E3,4.1288306E2,9.537754E1,1.27344955E2,3.66375E2,9.995073E1,2.9579758E2,5.429908E2,8.496486E1,6.963405E1,5.3187366E1,2.3850957E2,1.0312803E3,8.643151E1,3.2645154E2,6.777158E1,2.7605959E1,1.0800056E1,1.165449E2,2.4320695E2,1.2316804E2,6.652766E1,3.3423073E1,2.3768036E2,5.8117226E1,4.468657E0,5.3852216E2,6.403101E1,2.093385E1,3.887527E1,3.0758778E1,4.9749916E1,3.437453E0,1.9499252E1,2.1901031E2,8.5869086E2,1.7258937E2,4.9038954E0,8.152761E1,1.854954E2,1.4095615E2,3.6482662E1,3.1288918E1,2.3689674E1,3.916285E0,1.82988E0,8.970177E0,7.681946E1,3.972544E1,4.978155E1,1.934254E2,1.9634834E1,1.035332E2,5.8099403E1,8.428251E0,7.0046635E0,2.6418411E1,1.39622E2,9.8058365E1,2.2873522E1,3.5243702E1,5.328435E2,5.678653E0,7.870577E0,5.6160435E1,1.962854E1,1.3053082E0,1.0039811E1,2.8835459E1,4.8298E0,2.5928978E1,4.1093493E0,4.5640564E1,2.149392E0,1.288061E0,1.5626199E1,3.8730524E0,1.0545597E1,2.0846472E2,7.8365717E2,7.5033676E1,1.3625765E1,1.5896361E2,3.5775125E0,1.326383E0,7.9862854E1,1.6647571E0,1.2565754E2,5.9837868E1,4.6949898E1,9.400625E1,1.338663E0,3.5144E1,6.441013E0,2.4847906E1,2.737364E0,2.0952309E1,7.1269554E1,5.549905E0,2.6698456E1,1.3026983E1,8.982462E0,4.079909E1,1.814906E2,1.1934804E1,1.2559306E1,7.0755286E0,1.8327845E1,8.520536E1],"tree_param":{"num_deleted":"0","num_feature":"28","num_nodes":"119","size_leaf_vector":"1"}},{"base_weights":[7.740231E-3,3.317868E-2,-4.4745728E-1,7.268502E-1,2.4061978E-2,-5.054458E-1,7.783861E-1,8.7736714E-1,-1.9402806E-1,6.4964586E-1,1.5528827E-2,9.192308E-2,-5.304046E-1,1.0444204E-1,-4.107963E-2,-5.1141348E-2,9.8091274E-1,3.81631E-2,-5.706879E-2,8.766167E-1,-5.097354E-1,-5.567374E-3,2.4457856E-1,-1.78345E-1,-6.168895E-1,-1.3626985E-2,1.0468382E0,9.562394E-1,-2.2762505E-2,-6.1779447E-2,3.2923024E-4,4.451928E-2,-1.4478064E-1,5.5278486E-1,5.1614277E-2,-5.6690407E-1,8.0355597E-1,-6.301493E-1,8.588142E-2,1.1098384E-1,5.562835E-2,1.04501605E-1,-4.574007E-3,1.5749129E-2,-4.5345603E-3,-1.6832998E-2,7.077429E-2,3.553579E-2,1.2068912E-1,1.8777352E-2,-4.0137842E-2,3.1746056E-2,-6.776633E-2,1.0498891E-1,-4.6823297E-2,-2.1003995E-2,-6.562404E-2,-3.7204653E-2,4.8894454E-2],"categories":[],"categories_nodes":[],"categories_segments":[],"categories_sizes":[],"default_left":[0,0,0,0,0,0,0,0,0,0,0,0,0,0,0,0,0,0,0,0,0,0,0,0,0,0,0,0,0,0,0,0,0,0,0,0,0,0,0,0,0,0,0,0,0,0,0,0,0,0,0,0,0,0,0,0,0,0,0],"id":11,"left_children":[1,3,5,7,9,11,13,15,17,19,21,-1,23,-1,-1,-1,25,-1,-1,27,29,31,33,35,37,-1,39,41,-1,-1,-1,43,45,47,49,51,53,55,57,-1,-1,-1,-1,-1,-1,-1,-1,-1,-1,-1,-1,-1,-1,-1,-1,-1,-1,-1,-1],"loss_changes":[3.963104E1,2.0479136E1,1.326997E1,5.9931107E0,1.7072567E1,6.6593246E0,3.1420593E0,5.720093E0,1.6750296E0,1.1772144E1,1.5261255E1,0E0,5.103054E0,0E0,0E0,0E0,2.6551666E0,0E0,0E0,3.414505E0,4.2770565E-1,2.0176323E1,1.5812483E1,1.3874392E1,1.3311615E0,0E0,3.8171387E-1,3.0816612E0,0E0,0E0,0E0,2.1611816E1,1.5489735E1,1.2801565E1,1.0246597E1,2.7408934E0,3.745244E0,1.3377953E0,8.1276023E-1,0E0,0E0,0E0,0E0,0E0,0E0,0E0,0E0,0E0,0E0,0E0,0E0,0E0,0E0,0E0,0E0,0E0,0E0,0E0,0E0],"parents":[2147483647,0,0,1,1,2,2,3,3,4,4,5,5,6,6,7,7,8,8,9,9,10,10,12,12,16,16,19,19,20,20,21,21,22,22,23,23,24,24,26,26,27,27,31,31,32,32,33,33,34,34,35,35,36,36,37,37,38,38],"right_children":[2,4,6,8,10,12,14,16,18,20,22,-1,24,-1,-1,-1,26,-1,-1,28,30,32,34,36,38,-1,40,42,-1,-1,-1,44,46,48,50,52,54,56,58,-1,-1,-1,-1,-1,-1,-1,-1,-1,-1,-1,-1,-1,-1,-1,-1,-1,-1,-1,-1],"split_conditions":[1.8091772E0,-2.5719151E0,1.9198879E0,1.2481886E0,-1.8007848E0,-1.3923653E0,1.8925349E0,4.561456E-1,1.0165324E0,1.5821695E0,1.300817E0,9.192308E-2,3.8803482E-1,1.0444204E-1,-4.107963E-2,-5.1141348E-2,-5.623568E-1,3.81631E-2,-5.706879E-2,-1.6746974E0,1.13698415E-1,2.988707E-1,-5.3886116E-1,5.1653737E-1,2.537304E0,-1.3626985E-2,1.3419569E0,1.2302971E0,-2.2762505E-2,-6.1779447E-2,3.2923024E-4,-1.50212E-3,1.5282552E0,-9.361588E-2,2.6160462E0,-1.9090331E0,1.9309828E0,-1.0920297E0,2.1945693E0,1.1098384E-1,5.562835E-2,1.04501605E-1,-4.574007E-3,1.5749129E-2,-4.5345603E-3,-1.6832998E-2,7.077429E-2,3.553579E-2,1.2068912E-1,1.8777352E-2,-4.0137842E-2,3.1746056E-2,-6.776633E-2,1.0498891E-1,-4.6823297E-2,-2.1003995E-2,-6.562404E-2,-3.7204653E-2,4.8894454E-2],"split_indices":[25,3,27,23,0,18,0,27,0,20,17,0,27,0,0,0,23,0,0,23,13,18,27,20,3,0,13,13,0,0,0,7,0,24,18,10,0,17,0,0,0,0,0,0,0,0,0,0,0,0,0,0,0,0,0,0,0,0,0],"split_type":[0,0,0,0,0,0,0,0,0,0,0,0,0,0,0,0,0,0,0,0,0,0,0,0,0,0,0,0,0,0,0,0,0,0,0,0,0,0,0,0,0,0,0,0,0,0,0,0,0,0,0,0,0,0,0,0,0,0,0],"sum_hessian":[3.42023E3,3.2400867E3,1.8014326E2,4.1009758E1,3.199077E3,1.7256763E2,7.575634E0,3.528904E1,5.7207184E0,4.2038128E1,3.1570388E3,2.3542557E0,1.7021338E2,6.290179E0,1.2854551E0,2.1752331E0,3.3113808E1,2.2574303E0,3.4632878E0,3.535969E1,6.6784377E0,2.8916814E3,2.6535727E2,3.417148E1,1.360419E2,1.7857194E0,3.1328089E1,3.3106537E1,2.2531548E0,5.347815E0,1.3306227E0,2.127075E3,7.6460657E2,1.014518E2,1.6390549E2,2.478584E1,9.385637E0,1.3362402E2,2.4178734E0,2.6643894E1,4.6841946E0,3.0372538E1,2.7339973E0,9.420462E2,1.1850288E3,7.448345E2,1.9772085E1,7.911578E1,2.2336012E1,1.26475365E2,3.743012E1,2.5509982E0,2.2234842E1,8.008875E0,1.3767627E0,8.342724E0,1.25281296E2,1.167924E0,1.2499495E0],"tree_param":{"num_deleted":"0","num_feature":"28","num_nodes":"59","size_leaf_vector":"1"}},{"base_weights":[4.012895E-3,9.654456E-2,-1.06856436E-1,3.927288E-2,4.530479E-1,-1.3101651E-1,5.7781273E-1,2.222223E-2,9.5224106E-1,5.743476E-1,-2.672646E-1,-6.601925E-2,-3.154027E-1,-4.769256E-1,6.951313E-1,-6.283315E-2,1.4347918E-1,-5.6970365E-2,1.1282429E0,4.335222E-1,1.0510015E0,2.8743562E-1,-5.7432383E-1,-2.5786918E-1,5.7700165E-2,2.6641226E-1,-4.5910102E-1,-1.7991274E-3,-6.0800355E-2,-4.4063445E-2,9.19555E-1,-1.3378397E-1,2.2361593E-1,4.311647E-1,2.3309495E-2,-2.4963906E-3,1.1917024E-1,3.222434E-1,1.0766717E0,-1.680643E-1,1.1502347E0,8.065818E-1,-8.46872E-2,-6.518179E-1,2.3859821E-2,-2.9920396E-1,7.9481083E-1,7.96975E-1,1.306044E-3,-2.8107765E-1,6.3328564E-1,-5.049833E-1,1.7134385E-1,8.095244E-2,-3.5149622E-1,-4.6213683E-2,9.855491E-1,-5.653447E-2,-9.223542E-3,-4.544999E-2,3.2129444E-2,8.668128E-2,2.3771368E-2,2.1826511E-2,-2.2905981E-2,4.433624E-2,-3.6241416E-2,3.4273107E-2,1.1724106E-1,-5.1440936E-2,3.537727E-2,1.1911692E-1,-7.320512E-3,9.090692E-2,2.9624641E-2,-5.329153E-2,6.278203E-2,-1.0408628E-2,-6.9429934E-2,-4.160392E-2,5.0465267E-2,5.3838056E-2,-3.443765E-2,-5.4679275E-2,1.1234366E-1,1.3112417E-2,1.04827814E-1,-2.9826472E-2,6.526378E-3,-6.719082E-2,1.1086069E-2,-4.70034E-2,8.182971E-2,-5.2178945E-2,1.6753133E-2,-3.1990837E-2,8.7685995E-2,-6.323112E-2,2.6686981E-2,-3.8662646E-3,1.028082E-1],"categories":[],"categories_nodes":[],"categories_segments":[],"categories_sizes":[],"default_left":[0,0,0,0,0,0,0,0,0,0,0,0,0,0,0,0,0,0,0,0,0,0,0,0,0,0,0,0,0,0,0,0,0,0,0,0,0,0,0,0,0,0,0,0,0,0,0,0,0,0,0,0,0,0,0,0,0,0,0,0,0,0,0,0,0,0,0,0,0,0,0,0,0,0,0,0,0,0,0,0,0,0,0,0,0,0,0,0,0,0,0,0,0,0,0,0,0,0,0,0,0],"id":12,"left_children":[1,3,5,7,9,11,13,15,17,19,21,23,25,27,29,31,33,-1,35,37,39,41,43,45,47,49,51,-1,-1,53,55,57,59,61,63,-1,-1,65,67,69,71,73,75,77,79,81,83,85,87,89,91,93,95,-1,97,-1,99,-1,-1,-1,-1,-1,-1,-1,-1,-1,-1,-1,-1,-1,-1,-1,-1,-1,-1,-1,-1,-1,-1,-1,-1,-1,-1,-1,-1,-1,-1,-1,-1,-1,-1,-1,-1,-1,-1,-1,-1,-1,-1,-1,-1],"loss_changes":[3.513244E1,3.8094337E1,2.5846493E1,2.5031342E1,2.2719597E1,1.8023737E1,6.9251747E0,1.6313545E1,8.539867E0,1.4403458E1,6.6215334E0,2.6467966E1,3.2908726E1,3.455968E-1,8.062983E0,1.8927706E1,2.253194E1,0E0,1.9881897E0,1.2004494E1,6.2156944E0,2.806366E0,1.1620808E0,1.9257948E1,2.828075E1,1.5906237E1,9.193954E0,0E0,0E0,3.4905424E0,3.8422203E0,1.332186E1,1.2397598E1,1.5980183E1,2.2730915E1,0E0,0E0,1.2479392E1,1.356863E0,1.0169631E0,2.399109E0,4.5167923E-2,3.260146E0,4.3805504E-1,1.0139464E0,1.6126827E1,8.016352E0,7.907591E0,1.2114938E1,4.9933095E0,1.0018106E1,3.4074097E0,7.942221E0,0E0,1.8495121E0,0E0,1.5979156E0,0E0,0E0,0E0,0E0,0E0,0E0,0E0,0E0,0E0,0E0,0E0,0E0,0E0,0E0,0E0,0E0,0E0,0E0,0E0,0E0,0E0,0E0,0E0,0E0,0E0,0E0,0E0,0E0,0E0,0E0,0E0,0E0,0E0,0E0,0E0,0E0,0E0,0E0,0E0,0E0,0E0,0E0,0E0,0E0],"parents":[2147483647,0,0,1,1,2,2,3,3,4,4,5,5,6,6,7,7,8,8,9,9,10,10,11,11,12,12,13,13,14,14,15,15,16,16,18,18,19,19,20,20,21,21,22,22,23,23,24,24,25,25,26,26,29,29,30,30,31,31,32,32,33,33,34,34,37,37,38,38,39,39,40,40,41,41,42,42,43,43,44,44,45,45,46,46,47,47,48,48,49,49,50,50,51,51,52,52,54,54,56,56],"right_children":[2,4,6,8,10,12,14,16,18,20,22,24,26,28,30,32,34,-1,36,38,40,42,44,46,48,50,52,-1,-1,54,56,58,60,62,64,-1,-1,66,68,70,72,74,76,78,80,82,84,86,88,90,92,94,96,-1,98,-1,100,-1,-1,-1,-1,-1,-1,-1,-1,-1,-1,-1,-1,-1,-1,-1,-1,-1,-1,-1,-1,-1,-1,-1,-1,-1,-1,-1,-1,-1,-1,-1,-1,-1,-1,-1,-1,-1,-1,-1,-1,-1,-1,-1,-1],"split_conditions":[7.658182E-2,2.5511223E-1,1.987619E0,1.609807E0,1.400678E0,1.0028465E0,1.243557E0,-7.694153E-2,5.50947E-1,-1.5027961E-1,-9.023431E-1,-4.9217653E-1,-9.3178046E-1,-3.6732367E-1,3.0344325E-1,4.402937E-1,3.9989573E-1,-5.6970365E-2,-1.3673986E0,4.2513463E-1,-1.6170883E0,3.676993E-1,1.3893787E0,2.2317653E0,-9.295166E-1,-3.9180073E-1,1.846213E0,-1.7991274E-3,-6.0800355E-2,-1.9275603E-1,-2.0999556E0,-1.187088E0,-1.0173346E0,-1.2845868E0,5.0067216E-1,-2.4963906E-3,1.1917024E-1,2.3913361E-1,-1.5239795E0,4.8166814E-1,1.2031231E0,1.0085279E0,8.6571777E-1,6.831766E-2,6.483115E-1,-1.3313642E0,-5.7776904E-1,-1.268638E0,-2.4660125E-1,8.918775E-2,-1.2021866E-1,1.9992409E0,-3.4786984E-1,8.095244E-2,4.4239514E-2,-4.6213683E-2,-1.3837003E0,-5.653447E-2,-9.223542E-3,-4.544999E-2,3.2129444E-2,8.668128E-2,2.3771368E-2,2.1826511E-2,-2.2905981E-2,4.433624E-2,-3.6241416E-2,3.4273107E-2,1.1724106E-1,-5.1440936E-2,3.537727E-2,1.1911692E-1,-7.320512E-3,9.090692E-2,2.9624641E-2,-5.329153E-2,6.278203E-2,-1.0408628E-2,-6.9429934E-2,-4.160392E-2,5.0465267E-2,5.3838056E-2,-3.443765E-2,-5.4679275E-2,1.1234366E-1,1.3112417E-2,1.04827814E-1,-2.9826472E-2,6.526378E-3,-6.719082E-2,1.1086069E-2,-4.70034E-2,8.182971E-2,-5.2178945E-2,1.6753133E-2,-3.1990837E-2,8.7685995E-2,-6.323112E-2,2.6686981E-2,-3.8662646E-3,1.028082E-1],"split_indices":[26,17,23,3,23,7,18,24,15,26,20,24,20,6,26,10,24,0,5,23,2,4,21,26,19,2,24,0,0,19,8,4,21,26,7,0,0,19,13,17,12,2,3,18,10,15,3,21,18,17,18,8,3,0,8,0,2,0,0,0,0,0,0,0,0,0,0,0,0,0,0,0,0,0,0,0,0,0,0,0,0,0,0,0,0,0,0,0,0,0,0,0,0,0,0,0,0,0,0,0,0],"split_type":[0,0,0,0,0,0,0,0,0,0,0,0,0,0,0,0,0,0,0,0,0,0,0,0,0,0,0,0,0,0,0,0,0,0,0,0,0,0,0,0,0,0,0,0,0,0,0,0,0,0,0,0,0,0,0,0,0,0,0,0,0,0,0,0,0,0,0,0,0,0,0,0,0,0,0,0,0,0,0,0,0,0,0,0,0,0,0,0,0,0,0,0,0,0,0,0,0,0,0,0,0],"sum_hessian":[3.4225686E3,1.865636E3,1.5569325E3,1.608365E3,2.57271E2,1.5046464E3,5.228615E1,1.5798833E3,2.8481653E1,2.2036453E2,3.6906475E1,1.1134918E3,3.9115463E2,4.9268327E0,4.7359318E1,9.288357E2,6.510476E2,2.7204146E0,2.5761238E1,1.7158112E2,4.878342E1,1.3173162E1,2.373331E1,4.3612097E2,6.773708E2,7.7304665E1,3.1384995E2,1.3472064E0,3.579626E0,1.1217007E1,3.614231E1,7.448709E2,1.8396474E2,1.9106093E2,4.599867E2,1.3753092E0,2.438593E1,1.4755238E2,2.4028725E1,3.619891E0,4.5163532E1,5.0126004E0,8.1605625E0,2.093194E1,2.8013716E0,4.2033188E2,1.5789083E1,4.707881E1,6.30292E2,3.1111069E1,4.6193596E1,2.9274374E2,2.1106195E1,2.537753E0,8.679253E0,1.3739412E0,3.476837E1,6.430757E1,6.8056335E2,2.2702637E1,1.612621E2,5.768181E1,1.3337912E2,2.59589E2,2.003977E2,1.25672745E2,2.187964E1,3.3012183E0,2.0727507E1,2.1843581E0,1.4355327E0,4.372687E1,1.4366603E0,3.5236514E0,1.4889491E0,5.164013E0,2.9965491E0,1.7549379E0,1.9177002E1,1.5332308E0,1.2681407E0,2.0950539E1,3.9938135E2,2.9759586E0,1.2813124E1,1.3316718E1,3.3762096E1,1.1024649E2,5.2004553E2,1.5219884E1,1.5891186E1,6.412422E0,3.9781174E1,2.8582513E2,6.9186254E0,1.2764684E1,8.341512E0,5.953207E0,2.7260463E0,1.389901E0,3.337847E1],"tree_param":{"num_deleted":"0","num_feature":"28","num_nodes":"101","size_leaf_vector":"1"}},{"base_weights":[-5.0058844E-3,-8.3042376E-2,1.8165502E-1,3.4697227E-2,-1.6059591E-1,3.1675255E-1,4.0182244E-2,9.904551E-2,-1.7026888E-1,-3.0689412E-1,-1.294174E-1,5.4270077E-1,1.6661662E-1,-3.1965785E-2,3.3979228E-1,1.21265605E-1,-6.0813177E-1,-2.2067843E-1,4.339848E-1,-3.4388784E-1,6.201558E-1,-2.4816943E-2,-2.3911592E-1,3.0233723E-1,7.5320494E-1,2.2338988E-2,5.7809037E-1,3.4564562E-2,-3.6264256E-1,4.791056E-1,-1.7714791E-1,7.248711E-2,4.911457E-1,2.5386077E-3,-6.4725137E-1,-2.9663977E-1,2.171822E-1,-5.950863E-2,6.696084E-1,-4.328639E-1,-1.2181035E-1,1.021364E0,-5.244697E-2,-1.0944014E-1,1.8404907E-1,-4.1005257E-1,-1.8917887E-1,1.05939485E-1,9.8429793E-1,8.4567267E-1,2.9441498E-2,9.627389E-2,-5.7524824E-1,7.1428996E-1,-2.7355814E-1,-5.082732E-1,8.441103E-2,-4.3627003E-1,5.044243E-1,9.286689E-1,3.469331E-1,-4.0005162E-1,4.3617594E-1,-3.8052786E-3,3.188131E-2,6.214738E-2,-3.5413854E-2,-2.3590496E-2,-6.902155E-2,-8.501613E-3,-4.222722E-2,5.9272528E-2,-8.034723E-3,9.6083626E-2,-5.2997556E-2,2.5526572E-2,-4.619084E-2,1.1372516E-1,-1.8409133E-2,1.11218266E-1,3.456825E-2,-4.0238253E-3,-5.317347E-2,-1.857624E-3,4.177984E-2,-4.582925E-2,7.139641E-2,2.9843628E-2,-2.1077465E-2,-2.2011068E-2,5.6450512E-2,1.1082526E-1,-1.2193226E-3,-1.2732208E-2,8.8281356E-2,-6.86855E-2,5.1603235E-2,8.055303E-2,4.6154335E-3,-6.426639E-2,2.1141682E-2,7.597084E-2,-5.6777567E-2,6.56979E-2,-6.358727E-2,-5.6564458E-2,2.2491133E-2,1.3022095E-2,-3.2459464E-2,-2.607189E-2,-6.8040274E-2,8.9058414E-2,-1.8734137E-2,1.1203533E-1,-4.5723375E-2,-1.8199071E-2,5.0782274E-2,7.691882E-2,-5.6148928E-2,-1.7094836E-2,7.367622E-2],"categories":[],"categories_nodes":[],"categories_segments":[],"categories_sizes":[],"default_left":[0,0,0,0,0,0,0,0,0,0,0,0,0,0,0,0,0,0,0,0,0,0,0,0,0,0,0,0,0,0,0,0,0,0,0,0,0,0,0,0,0,0,0,0,0,0,0,0,0,0,0,0,0,0,0,0,0,0,0,0,0,0,0,0,0,0,0,0,0,0,0,0,0,0,0,0,0,0,0,0,0,0,0,0,0,0,0,0,0,0,0,0,0,0,0,0,0,0,0,0,0,0,0,0,0,0,0,0,0,0,0,0,0,0,0,0,0,0,0,0,0],"id":13,"left_children":[1,3,5,7,9,11,13,15,17,19,21,23,25,27,29,31,33,35,37,39,41,43,45,47,49,51,53,55,57,59,61,63,65,-1,67,69,71,-1,73,75,77,79,-1,81,83,85,87,89,91,93,95,97,99,101,103,105,107,109,111,113,115,117,119,-1,-1,-1,-1,-1,-1,-1,-1,-1,-1,-1,-1,-1,-1,-1,-1,-1,-1,-1,-1,-1,-1,-1,-1,-1,-1,-1,-1,-1,-1,-1,-1,-1,-1,-1,-1,-1,-1,-1,-1,-1,-1,-1,-1,-1,-1,-1,-1,-1,-1,-1,-1,-1,-1,-1,-1,-1,-1],"loss_changes":[4.990025E1,2.2063847E1,1.9290215E1,1.2680346E1,6.604294E0,1.7429897E1,1.0699762E1,1.1566032E1,7.0948243E0,8.963938E0,1.379133E1,1.0182095E1,1.8493767E1,8.80006E0,7.002198E0,1.2772834E1,5.7271385E-1,7.1405E0,4.770298E0,4.80834E0,5.1959925E0,1.0919052E1,4.9313507E0,1.2984815E1,7.2706337E0,1.0298984E1,9.578075E0,9.065364E0,4.496706E0,4.189642E0,3.0619195E0,1.712207E1,9.313061E0,0E0,2.1146488E-1,4.7954035E0,3.626388E0,0E0,5.798931E0,3.6204872E0,5.8366423E0,9.7462654E-2,0E0,1.2821266E1,8.446491E0,7.4743385E0,4.864609E0,1.1636348E1,2.697691E0,3.6042404E0,5.019868E0,7.3274827E0,1.4972343E0,4.5081787E0,4.421603E0,1.3128257E0,5.780445E0,2.4919176E0,1.6913766E0,4.936887E0,5.2217894E0,3.4543495E0,1.240662E0,0E0,0E0,0E0,0E0,0E0,0E0,0E0,0E0,0E0,0E0,0E0,0E0,0E0,0E0,0E0,0E0,0E0,0E0,0E0,0E0,0E0,0E0,0E0,0E0,0E0,0E0,0E0,0E0,0E0,0E0,0E0,0E0,0E0,0E0,0E0,0E0,0E0,0E0,0E0,0E0,0E0,0E0,0E0,0E0,0E0,0E0,0E0,0E0,0E0,0E0,0E0,0E0,0E0,0E0,0E0,0E0,0E0,0E0],"parents":[2147483647,0,0,1,1,2,2,3,3,4,4,5,5,6,6,7,7,8,8,9,9,10,10,11,11,12,12,13,13,14,14,15,15,16,16,17,17,18,18,19,19,20,20,21,21,22,22,23,23,24,24,25,25,26,26,27,27,28,28,29,29,30,30,31,31,32,32,34,34,35,35,36,36,38,38,39,39,40,40,41,41,43,43,44,44,45,45,46,46,47,47,48,48,49,49,50,50,51,51,52,52,53,53,54,54,55,55,56,56,57,57,58,58,59,59,60,60,61,61,62,62],"right_children":[2,4,6,8,10,12,14,16,18,20,22,24,26,28,30,32,34,36,38,40,42,44,46,48,50,52,54,56,58,60,62,64,66,-1,68,70,72,-1,74,76,78,80,-1,82,84,86,88,90,92,94,96,98,100,102,104,106,108,110,112,114,116,118,120,-1,-1,-1,-1,-1,-1,-1,-1,-1,-1,-1,-1,-1,-1,-1,-1,-1,-1,-1,-1,-1,-1,-1,-1,-1,-1,-1,-1,-1,-1,-1,-1,-1,-1,-1,-1,-1,-1,-1,-1,-1,-1,-1,-1,-1,-1,-1,-1,-1,-1,-1,-1,-1,-1,-1,-1,-1,-1],"split_conditions":[1.0028465E0,-3.393094E-1,1.5050207E0,-4.995855E-1,-1.1538744E0,-6.5069234E-1,4.7903356E-1,2.0079718E0,1.6680104E0,1.6581446E0,2.0813835E-1,2.9262556E-2,9.540186E-1,2.7445734E-1,7.345326E-1,-6.2672937E-1,3.601658E-1,9.273122E-1,-1.087437E0,9.954876E-1,1.7620866E0,1.0165324E0,-1.9771991E-2,4.4967216E-3,-1.9201415E-2,1.6703095E0,1.0921868E0,-1.5102758E0,1.3507166E0,2.1985134E-1,2.059375E0,2.6960707E-1,6.461036E-2,2.5386077E-3,-1.5354224E0,-2.6371032E-1,1.3243197E0,-5.950863E-2,2.0079719E-1,-1.7488941E0,-1.0025022E0,7.751398E-1,-5.244697E-2,5.762003E-1,-5.0783087E-2,2.0378613E0,-1.00101E0,-4.8573127E-1,-1.2021866E-1,-1.5306503E0,5.5420987E-2,-8.355766E-1,2.0026028E0,1.799263E0,-1.8857068E0,7.751398E-1,1.4377503E0,1.2846676E-1,-6.49724E-2,-2.4306068E-1,8.071195E-1,-9.8695725E-1,3.4332836E-1,-3.8052786E-3,3.188131E-2,6.214738E-2,-3.5413854E-2,-2.3590496E-2,-6.902155E-2,-8.501613E-3,-4.222722E-2,5.9272528E-2,-8.034723E-3,9.6083626E-2,-5.2997556E-2,2.5526572E-2,-4.619084E-2,1.1372516E-1,-1.8409133E-2,1.11218266E-1,3.456825E-2,-4.0238253E-3,-5.317347E-2,-1.857624E-3,4.177984E-2,-4.582925E-2,7.139641E-2,2.9843628E-2,-2.1077465E-2,-2.2011068E-2,5.6450512E-2,1.1082526E-1,-1.2193226E-3,-1.2732208E-2,8.8281356E-2,-6.86855E-2,5.1603235E-2,8.055303E-2,4.6154335E-3,-6.426639E-2,2.1141682E-2,7.597084E-2,-5.6777567E-2,6.56979E-2,-6.358727E-2,-5.6564458E-2,2.2491133E-2,1.3022095E-2,-3.2459464E-2,-2.607189E-2,-6.8040274E-2,8.9058414E-2,-1.8734137E-2,1.1203533E-1,-4.5723375E-2,-1.8199071E-2,5.0782274E-2,7.691882E-2,-5.6148928E-2,-1.7094836E-2,7.367622E-2],"split_indices":[7,19,7,24,18,12,4,21,24,24,18,18,25,4,19,19,11,26,16,5,10,0,12,0,19,15,22,21,21,21,3,18,12,0,0,26,26,0,4,14,22,2,0,0,21,15,26,21,18,22,19,19,11,9,18,2,26,18,10,12,15,11,10,0,0,0,0,0,0,0,0,0,0,0,0,0,0,0,0,0,0,0,0,0,0,0,0,0,0,0,0,0,0,0,0,0,0,0,0,0,0,0,0,0,0,0,0,0,0,0,0,0,0,0,0,0,0,0,0,0,0],"split_type":[0,0,0,0,0,0,0,0,0,0,0,0,0,0,0,0,0,0,0,0,0,0,0,0,0,0,0,0,0,0,0,0,0,0,0,0,0,0,0,0,0,0,0,0,0,0,0,0,0,0,0,0,0,0,0,0,0,0,0,0,0,0,0,0,0,0,0,0,0,0,0,0,0,0,0,0,0,0,0,0,0,0,0,0,0,0,0,0,0,0,0,0,0,0,0,0,0,0,0,0,0,0,0,0,0,0,0,0,0,0,0,0,0,0,0,0,0,0,0,0,0],"sum_hessian":[3.4236826E3,2.4147246E3,1.008958E3,9.5913904E2,1.4555854E3,5.1547406E2,4.9348395E2,7.303617E2,2.2877733E2,2.5415868E2,1.2014268E3,2.0473772E2,3.1073633E2,3.9843222E2,9.5051735E1,7.089155E2,2.1446194E1,2.1174721E2,1.703011E1,2.4501064E2,9.148045E0,6.156317E2,5.857951E2,9.672679E1,1.08010925E2,2.308472E2,7.9889114E1,3.3244217E2,6.599006E1,7.493125E1,2.0120483E1,6.273754E2,8.154011E1,1.2676957E0,2.0178497E1,1.8071822E2,3.1029003E1,2.8886285E0,1.4141481E1,1.7424834E2,7.076229E1,6.853484E0,2.2945607E0,4.3846234E2,1.7716936E2,1.3081125E2,4.5498386E2,7.599605E1,2.0730743E1,9.562542E1,1.2385505E1,2.0617735E2,2.4669855E1,6.901344E1,1.0875668E1,2.7185879E1,3.052563E2,6.128302E1,4.7070384E0,1.5655481E1,5.9275772E1,1.5012236E1,5.108248E0,4.336283E2,1.9374712E2,7.08769E1,1.066321E1,2.5221105E0,1.7656387E1,6.794455E1,1.1277367E2,1.3277686E1,1.7751316E1,1.153911E1,2.602371E0,6.741367E0,1.6750697E2,2.5218086E0,6.824048E1,5.4719777E0,1.3815067E0,3.7766864E2,6.0793705E1,9.539599E1,8.177338E1,1.25996086E2,4.81516E0,1.8752325E1,4.3623154E2,4.4719505E1,3.127654E1,1.8337557E1,2.3931859E0,3.426697E0,9.219872E1,4.8436866E0,7.541818E0,1.2613129E1,1.9356422E2,2.2891176E1,1.7786772E0,6.704572E1,1.967726E0,2.8199282E0,8.055739E0,2.54249E1,1.7609775E0,2.7512323E2,3.0133049E1,3.6851646E1,2.4431376E1,2.8363266E0,1.8707116E0,1.3921593E1,1.7338886E0,1.37946825E1,4.548109E1,1.3645602E0,1.36476755E1,1.834403E0,3.2738452E0],"tree_param":{"num_deleted":"0","num_feature":"28","num_nodes":"121","size_leaf_vector":"1"}},{"base_weights":[-1.6829105E-4,2.4279498E-2,-4.4178003E-1,-5.7750575E-2,1.5040462E-1,-4.9382398E-1,7.848003E-1,-8.497384E-4,-3.622674E-1,-3.472891E-1,1.9367588E-1,9.243165E-2,-5.2303165E-1,-2.5883813E-3,9.587799E-2,1.0689579E0,-1.8699E-2,8.635031E-1,-4.199426E-1,1.1755078E-1,-4.452061E-1,3.830354E-1,7.018829E-2,-2.4068415E-1,-5.937145E-1,1.1358864E0,4.596115E-1,1.4358091E-2,-3.757608E-1,9.9223715E-1,-7.1780942E-3,-4.5263076E-1,2.4935503E-1,5.37709E-1,-5.957244E-1,6.3499457E-1,2.3504537E-1,-2.16684E-1,2.4835376E-1,2.2654572E-1,-6.516314E-2,-1.4507268E-1,-6.250881E-1,1.1749835E-1,3.0725215E-2,7.41196E-2,-7.6881186E-3,2.3437437E-2,-4.3453886E-3,-4.921853E-2,9.8700784E-2,1.0418897E-1,3.490655E-2,-4.669784E-2,6.3575916E-2,9.6401416E-2,-5.2196186E-2,1.1467307E-1,-5.6697547E-2,-2.8741506E-3,-6.341664E-2,1.1521869E-1,4.6565264E-2,-6.6844665E-2,3.1809792E-2,-4.7739714E-2,1.5072809E-3,4.9207743E-2,6.80234E-3,-6.1121907E-2,6.951412E-2,-4.832615E-2,7.632133E-2,-1.1043756E-2,-6.3854724E-2],"categories":[],"categories_nodes":[],"categories_segments":[],"categories_sizes":[],"default_left":[0,0,0,0,0,0,0,0,0,0,0,0,0,0,0,0,0,0,0,0,0,0,0,0,0,0,0,0,0,0,0,0,0,0,0,0,0,0,0,0,0,0,0,0,0,0,0,0,0,0,0,0,0,0,0,0,0,0,0,0,0,0,0,0,0,0,0,0,0,0,0,0,0,0,0],"id":14,"left_children":[1,3,5,7,9,11,13,15,17,19,21,-1,23,-1,-1,25,27,29,31,-1,33,35,37,39,41,43,45,47,49,51,-1,53,55,57,59,61,63,65,67,69,-1,71,73,-1,-1,-1,-1,-1,-1,-1,-1,-1,-1,-1,-1,-1,-1,-1,-1,-1,-1,-1,-1,-1,-1,-1,-1,-1,-1,-1,-1,-1,-1,-1,-1],"loss_changes":[3.7225784E1,3.3810383E1,1.1933456E1,3.4313316E1,2.7800766E1,7.69561E0,1.1176286E0,3.1900501E1,2.2404102E1,1.5936107E1,2.769239E1,0E0,3.2746544E0,0E0,0E0,5.9602165E-1,1.9400003E1,1.7975264E0,6.6421356E0,0E0,1.4796457E1,1.7289566E1,3.6788727E1,7.0537167E0,1.8274803E0,4.172573E-1,7.20605E-1,1.915142E1,2.2582212E1,4.09441E-2,0E0,4.745777E0,8.518953E0,9.745789E0,1.8415642E0,1.4568497E1,2.2440151E1,1.6677334E1,1.9473509E1,7.3237233E0,0E0,3.5048203E0,8.096466E-1,0E0,0E0,0E0,0E0,0E0,0E0,0E0,0E0,0E0,0E0,0E0,0E0,0E0,0E0,0E0,0E0,0E0,0E0,0E0,0E0,0E0,0E0,0E0,0E0,0E0,0E0,0E0,0E0,0E0,0E0,0E0,0E0],"parents":[2147483647,0,0,1,1,2,2,3,3,4,4,5,5,6,6,7,7,8,8,9,9,10,10,12,12,15,15,16,16,17,17,18,18,20,20,21,21,22,22,23,23,24,24,25,25,26,26,27,27,28,28,29,29,31,31,32,32,33,33,34,34,35,35,36,36,37,37,38,38,39,39,41,41,42,42],"right_children":[2,4,6,8,10,12,14,16,18,20,22,-1,24,-1,-1,26,28,30,32,-1,34,36,38,40,42,44,46,48,50,52,-1,54,56,58,60,62,64,66,68,70,-1,72,74,-1,-1,-1,-1,-1,-1,-1,-1,-1,-1,-1,-1,-1,-1,-1,-1,-1,-1,-1,-1,-1,-1,-1,-1,-1,-1,-1,-1,-1,-1,-1,-1],"split_conditions":[1.8091772E0,2.4672788E-1,1.9198879E0,2.6960707E-1,-1.6236602E0,-1.3923653E0,-5.7649845E-1,-1.7519138E0,-5.9485644E-1,-1.5447458E0,3.2089144E-1,9.243165E-2,3.8803482E-1,-2.5883813E-3,9.587799E-2,5.916912E-1,7.828097E-1,3.0961445E-1,8.895076E-1,1.1755078E-1,-1.3874236E0,-5.768336E-1,1.0407429E0,1.9315416E0,-1.6293865E0,3.8851054E0,-6.0743076E-1,-4.1169244E-1,3.9369974E-1,7.0298684E-1,-7.1780942E-3,1.9633112E0,-9.523829E-1,-4.48089E-1,-1.8995318E0,-6.0526535E-2,-1.3542591E0,3.008569E-2,-5.3886116E-1,-8.1803256E-1,-6.516314E-2,-1.0306399E0,-1.0920297E0,1.1749835E-1,3.0725215E-2,7.41196E-2,-7.6881186E-3,2.3437437E-2,-4.3453886E-3,-4.921853E-2,9.8700784E-2,1.0418897E-1,3.490655E-2,-4.669784E-2,6.3575916E-2,9.6401416E-2,-5.2196186E-2,1.1467307E-1,-5.6697547E-2,-2.8741506E-3,-6.341664E-2,1.1521869E-1,4.6565264E-2,-6.6844665E-2,3.1809792E-2,-4.7739714E-2,1.5072809E-3,4.9207743E-2,6.80234E-3,-6.1121907E-2,6.951412E-2,-4.832615E-2,7.632133E-2,-1.1043756E-2,-6.3854724E-2],"split_indices":[25,26,27,18,27,18,9,21,16,0,18,0,27,0,0,27,4,27,19,0,22,24,26,25,4,22,0,22,17,5,0,18,10,0,27,11,27,25,27,4,0,15,17,0,0,0,0,0,0,0,0,0,0,0,0,0,0,0,0,0,0,0,0,0,0,0,0,0,0,0,0,0,0,0,0],"split_type":[0,0,0,0,0,0,0,0,0,0,0,0,0,0,0,0,0,0,0,0,0,0,0,0,0,0,0,0,0,0,0,0,0,0,0,0,0,0,0,0,0,0,0,0,0,0,0,0,0,0,0,0,0,0,0,0,0,0,0,0,0,0,0,0,0,0,0,0,0,0,0,0,0,0,0],"sum_hessian":[3.445978E3,3.26611E3,1.7986804E2,1.9793257E3,1.2867844E3,1.7311993E2,6.7481008E0,1.6685497E3,3.1077594E2,1.0236662E2,1.1844178E3,2.875141E0,1.702448E2,1.3427198E0,5.4053807E0,2.6415749E1,1.6421339E3,1.3337716E1,2.9743823E2,5.5196934E0,9.684693E1,4.6668594E2,7.177319E2,3.496794E1,1.3527686E2,2.3022884E1,3.3928633E0,1.5038646E3,1.382693E2,1.1670479E1,1.6672376E0,2.8389658E2,1.3541651E1,1.2519521E1,8.432741E1,1.7146642E2,2.952195E2,2.7489493E2,4.4283694E2,1.65734E1,1.839454E1,9.209223E0,1.26067635E2,2.1586409E1,1.4364765E0,1.9748054E0,1.418058E0,3.1229663E2,1.191568E3,1.27974945E2,1.0294365E1,1.0258596E1,1.4118819E0,2.8076636E2,3.13024E0,6.8993087E0,6.6423426E0,8.045763E0,4.4737577E0,5.465407E0,7.886201E1,4.086266E1,1.3060376E2,2.4259766E1,2.7095975E2,1.28867E2,1.4602792E2,1.875827E2,2.5525424E2,5.835754E0,1.0737647E1,7.051593E0,2.15763E0,3.4475036E0,1.2262013E2],"tree_param":{"num_deleted":"0","num_feature":"28","num_nodes":"75","size_leaf_vector":"1"}},{"base_weights":[1.9142837E-3,4.7199305E-2,-1.768828E-1,-1.0832735E-2,2.632381E-1,-2.8031853E-1,9.645914E-2,-5.3181786E-2,1.4363393E-1,-9.756397E-2,3.545954E-1,-3.6337548E-1,8.939569E-2,3.750632E-1,-2.1672432E-1,6.887725E-2,-1.3078874E-1,3.239207E-1,-4.5556236E-2,1.1078433E-1,-1.7089342E-1,4.7790977E-1,4.071135E-4,6.43699E-1,-3.9162365E-1,7.886407E-1,-1.2948151E-1,7.7294725E-1,5.24506E-2,-3.686804E-1,8.291482E-1,7.118202E-1,2.3510711E-2,-1.4908877E-1,7.452631E-1,1.804196E-1,5.9124434E-1,-4.2511943E-1,3.281441E-2,-4.9597496E-1,1.0308085E-1,6.666571E-1,1.6629423E-1,-3.9202246E-1,4.554505E-1,-5.3679593E-2,1.11299954E-1,3.6986282E-1,-4.194817E-1,1.144373E0,-1.8962558E-1,-5.706547E-1,8.7602496E-2,1.4179355E-1,1.0612959E0,-5.417421E-1,7.782261E-1,-4.333398E-1,8.813965E-2,9.357873E-2,-8.709963E-4,-3.0941391E-2,9.5705174E-2,1.6542738E-2,-1.8343206E-2,-2.4966031E-2,-2.8553957E-3,9.7315624E-2,-5.300663E-2,-6.1450917E-2,2.8603414E-2,1.0317563E-1,3.6231935E-2,5.5396784E-2,-5.1452737E-2,2.8079573E-2,-2.082703E-2,-5.3102214E-2,4.6780985E-2,4.5227926E-2,-3.9029017E-2,3.0278016E-2,8.896951E-2,3.2572753E-3,1.1116981E-1,-5.564524E-2,4.352989E-2,6.102192E-2,-5.2463472E-2,7.520508E-2,-9.1824755E-3,-6.0889255E-2,-2.9869884E-2,4.695786E-2,1.3058883E-1,-6.173351E-2,8.56623E-2,1.3339962E-2,-6.490178E-2,4.999444E-2,-6.3834056E-2,-6.3713506E-2,6.2015146E-2,3.7000302E-2,1.2044578E-1,-6.013282E-2,4.7961716E-2,-1.4498065E-2,1.09226696E-1,-4.8650246E-2,4.0931027E-2],"categories":[],"categories_nodes":[],"categories_segments":[],"categories_sizes":[],"default_left":[0,0,0,0,0,0,0,0,0,0,0,0,0,0,0,0,0,0,0,0,0,0,0,0,0,0,0,0,0,0,0,0,0,0,0,0,0,0,0,0,0,0,0,0,0,0,0,0,0,0,0,0,0,0,0,0,0,0,0,0,0,0,0,0,0,0,0,0,0,0,0,0,0,0,0,0,0,0,0,0,0,0,0,0,0,0,0,0,0,0,0,0,0,0,0,0,0,0,0,0,0,0,0,0,0,0,0,0,0,0,0],"id":15,"left_children":[1,3,5,7,9,11,13,15,17,19,21,23,25,27,29,31,33,35,37,-1,39,41,43,45,47,49,51,53,55,57,59,61,63,65,67,69,71,73,75,77,79,81,83,85,87,-1,-1,89,91,93,95,97,99,101,103,105,107,109,-1,-1,-1,-1,-1,-1,-1,-1,-1,-1,-1,-1,-1,-1,-1,-1,-1,-1,-1,-1,-1,-1,-1,-1,-1,-1,-1,-1,-1,-1,-1,-1,-1,-1,-1,-1,-1,-1,-1,-1,-1,-1,-1,-1,-1,-1,-1,-1,-1,-1,-1,-1,-1],"loss_changes":[2.7538994E1,3.4026478E1,1.9460884E1,1.4007484E1,1.8976692E1,1.5352814E1,1.6610891E1,1.5926665E1,1.5730898E1,1.0521771E1,2.003741E1,1.1847225E1,1.4232199E1,1.2875536E1,1.4580486E1,1.9053167E1,1.6585215E1,8.948866E0,6.7280483E0,0E0,9.94228E0,1.9904099E1,2.1514082E1,6.9680495E0,8.578846E0,7.9254894E0,6.8663735E0,8.03591E0,2.4847555E1,6.776968E0,1.0537357E0,1.1079372E1,1.7996187E1,1.220492E1,6.675355E0,1.3192577E1,7.8970566E0,3.6727204E0,1.1298575E1,1.9698505E0,1.0701993E1,1.690342E1,1.6360382E1,9.042454E0,8.782429E0,0E0,0E0,2.6356878E0,8.592712E0,1.1726952E0,3.5559678E0,1.3889112E0,1.4857396E1,6.0811872E0,2.5947914E0,2.219617E0,7.6695013E0,3.5991316E0,0E0,0E0,0E0,0E0,0E0,0E0,0E0,0E0,0E0,0E0,0E0,0E0,0E0,0E0,0E0,0E0,0E0,0E0,0E0,0E0,0E0,0E0,0E0,0E0,0E0,0E0,0E0,0E0,0E0,0E0,0E0,0E0,0E0,0E0,0E0,0E0,0E0,0E0,0E0,0E0,0E0,0E0,0E0,0E0,0E0,0E0,0E0,0E0,0E0,0E0,0E0,0E0,0E0],"parents":[2147483647,0,0,1,1,2,2,3,3,4,4,5,5,6,6,7,7,8,8,9,9,10,10,11,11,12,12,13,13,14,14,15,15,16,16,17,17,18,18,20,20,21,21,22,22,23,23,24,24,25,25,26,26,27,27,28,28,29,29,30,30,31,31,32,32,33,33,34,34,35,35,36,36,37,37,38,38,39,39,40,40,41,41,42,42,43,43,44,44,47,47,48,48,49,49,50,50,51,51,52,52,53,53,54,54,55,55,56,56,57,57],"right_children":[2,4,6,8,10,12,14,16,18,20,22,24,26,28,30,32,34,36,38,-1,40,42,44,46,48,50,52,54,56,58,60,62,64,66,68,70,72,74,76,78,80,82,84,86,88,-1,-1,90,92,94,96,98,100,102,104,106,108,110,-1,-1,-1,-1,-1,-1,-1,-1,-1,-1,-1,-1,-1,-1,-1,-1,-1,-1,-1,-1,-1,-1,-1,-1,-1,-1,-1,-1,-1,-1,-1,-1,-1,-1,-1,-1,-1,-1,-1,-1,-1,-1,-1,-1,-1,-1,-1,-1,-1,-1,-1,-1,-1],"split_conditions":[9.273122E-1,3.546781E-1,7.2163975E-1,5.282164E-1,-4.7339544E-1,8.25971E-1,5.0067216E-1,-6.4638114E-1,-4.338564E-1,-1.4846482E0,1.400678E0,-1.7362698E0,7.411869E-1,7.15896E-1,1.8216324E0,-1.2494509E0,1.9315416E0,-3.987559E-1,-5.953369E-1,1.1078433E-1,1.4596416E-1,3.0344325E-1,1.9722279E0,9.9944085E-1,-1.6243862E0,-9.4879216E-1,1.0165324E0,-5.5103225E-1,1.7348573E0,2.3555305E0,1.367012E0,-1.4994606E0,-3.7714103E-1,4.5872066E-2,1.7911726E-1,-1.2803118E-1,-1.4773604E-1,-2.0699497E-1,3.844738E-1,4.9014026E-1,3.0344325E-1,-3.204257E-1,1.0756419E0,6.437354E-1,2.059375E0,-5.3679593E-2,1.11299954E-1,-8.2895154E-4,1.3496673E-2,-4.3336603E-1,4.4239514E-2,1.0407429E0,1.3674154E0,-1.9685255E-1,7.328482E-2,1.6201888E0,-9.7527105E-1,1.5280566E0,8.813965E-2,9.357873E-2,-8.709963E-4,-3.0941391E-2,9.5705174E-2,1.6542738E-2,-1.8343206E-2,-2.4966031E-2,-2.8553957E-3,9.7315624E-2,-5.300663E-2,-6.1450917E-2,2.8603414E-2,1.0317563E-1,3.6231935E-2,5.5396784E-2,-5.1452737E-2,2.8079573E-2,-2.082703E-2,-5.3102214E-2,4.6780985E-2,4.5227926E-2,-3.9029017E-2,3.0278016E-2,8.896951E-2,3.2572753E-3,1.1116981E-1,-5.564524E-2,4.352989E-2,6.102192E-2,-5.2463472E-2,7.520508E-2,-9.1824755E-3,-6.0889255E-2,-2.9869884E-2,4.695786E-2,1.3058883E-1,-6.173351E-2,8.56623E-2,1.3339962E-2,-6.490178E-2,4.999444E-2,-6.3834056E-2,-6.3713506E-2,6.2015146E-2,3.7000302E-2,1.2044578E-1,-6.013282E-2,4.7961716E-2,-1.4498065E-2,1.09226696E-1,-4.8650246E-2,4.0931027E-2],"split_indices":[26,18,19,10,0,23,7,15,26,19,23,25,25,25,0,19,25,17,25,0,4,26,0,4,19,22,0,10,24,4,6,0,26,21,22,19,17,26,25,10,26,26,25,26,3,0,0,6,10,10,8,26,17,22,24,15,2,13,0,0,0,0,0,0,0,0,0,0,0,0,0,0,0,0,0,0,0,0,0,0,0,0,0,0,0,0,0,0,0,0,0,0,0,0,0,0,0,0,0,0,0,0,0,0,0,0,0,0,0,0,0],"split_type":[0,0,0,0,0,0,0,0,0,0,0,0,0,0,0,0,0,0,0,0,0,0,0,0,0,0,0,0,0,0,0,0,0,0,0,0,0,0,0,0,0,0,0,0,0,0,0,0,0,0,0,0,0,0,0,0,0,0,0,0,0,0,0,0,0,0,0,0,0,0,0,0,0,0,0,0,0,0,0,0,0,0,0,0,0,0,0,0,0,0,0,0,0,0,0,0,0,0,0,0,0,0,0,0,0,0,0,0,0,0,0],"sum_hessian":[3.3991758E3,2.7128196E3,6.8635626E2,2.139153E3,5.736665E2,4.9791428E2,1.8844197E2,1.6793839E3,4.597693E2,1.15893684E2,4.5777283E2,4.065902E2,9.132406E1,9.9621956E1,8.882002E1,6.527932E2,1.0265907E3,2.3505959E2,2.2470969E2,5.836938E0,1.1005675E2,3.3929453E2,1.1847828E2,1.0499126E1,3.9609106E2,2.115077E1,7.0173294E1,4.3982113E1,5.5639843E1,7.81177E1,1.0702323E1,4.205741E1,6.107358E2,1.00639764E3,2.0193035E1,1.5404314E2,8.101646E1,3.769954E1,1.8701015E2,4.9963154E1,6.0093594E1,2.1059598E2,1.2869855E2,6.3690266E1,5.4788013E1,2.9456687E0,7.553458E0,1.3545819E1,3.8254526E2,1.5386056E1,5.764714E0,2.2605038E1,4.7568253E1,1.4260239E1,2.9721874E1,3.073261E1,2.4907232E1,7.489705E1,3.2206516E0,9.3902855E0,1.3120371E0,8.093089E0,3.396432E1,3.624063E2,2.4832945E2,5.480477E2,4.5834995E2,1.7332727E1,2.860309E0,1.7500881E1,1.3654225E2,2.6505648E1,5.451081E1,2.7197866E0,3.497975E1,9.210531E1,9.490485E1,4.8643303E1,1.3198483E0,3.5236897E1,2.4856699E1,8.092607E1,1.296699E2,1.13656944E2,1.5041614E1,5.3403698E1,1.0286569E1,4.764207E1,7.145944E0,7.0668874E0,6.478932E0,1.4738144E2,2.3516382E2,3.7261035E0,1.1659952E1,4.382918E0,1.381796E0,2.193667E0,2.0411371E1,3.0535273E1,1.7032982E1,5.299286E0,8.960952E0,5.714156E0,2.4007719E1,2.9427082E1,1.3055286E0,6.4586496E0,1.8448584E1,7.084979E1,4.047252E0],"tree_param":{"num_deleted":"0","num_feature":"28","num_nodes":"111","size_leaf_vector":"1"}},{"base_weights":[8.71499E-3,1.4332694E-1,-7.094755E-2,9.336432E-2,3.486986E-1,-1.01973206E-1,9.588948E-2,2.7201328E-1,4.294045E-2,1.0642161E0,3.0495882E-1,-5.2377142E-2,-1.9772886E-1,6.6693753E-1,1.6186355E-2,-8.539567E-2,3.8191807E-1,-3.6790457E-2,2.100395E-1,1.1290317E0,2.9453954E-2,4.056601E-1,1.057754E-2,1.7836146E-2,-2.204572E-1,-3.4544212E-1,-1.0208936E-1,7.447348E-1,-3.0355135E-1,4.4427365E-1,-7.026162E-2,2.000196E-1,-5.5073076E-1,-1.6941647E-1,4.5966396E-1,-1.914999E-1,2.2651389E-1,3.9436477E-1,-1.0382638E-1,3.5449978E-2,